svm_type c_svc
kernel_type rbf
gamma 0.007
nr_class 2
total_sv 269
rho 0.489499
label -1 1
nr_sv 139 130
SV
2.560612889194792 1:-0.0536585 2:-0.00465116 3:0.0697674 4:0.0380952 5:0.04 6:0.152074 7:0.0854271 8:0.123153 9:0.124378 10:0.2 11:0.258537 12:0.293532 13:0.353234 14:0.342857 15:0.369458 16:0.485437 17:0.502488 18:0.517588 19:0.568627 20:0.545455 21:0.512195 22:0.512438 23:0.588235 24:0.633663 25:0.61194 26:0.586207 27:0.58 28:0.656863 29:0.605769 30:0.628319 31:-0.102804 32:-0.0288462 33:0.0733945 34:-0.00473934 35:0.0485437 36:0.0943396 37:-0.00473934 38:0.108911 39:0.0954774 40:0.242424 41:0.20603 42:0.266332 43:0.329949 44:0.386935 45:0.378641 46:0.428571 47:0.527638 48:0.514563 49:0.435644 50:0.550239 51:0.547739 52:0.531707 53:0.61165 54:0.580488 55:0.64 56:0.575758 57:0.650485 58:0.704433 59:0.712919 60:0.668293 61:-0.0875576 62:-0.0995261 63:0.0462963 64:-0.0348259 65:0.0377358 66:0.107843 67:0.0909091 68:0.00460829 69:0.155779 70:0.214286 71:0.267327 72:0.283582 73:0.349754 74:0.401961 75:0.421569 76:0.492683 77:0.534653 78:0.565657 79:0.5 80:0.544554 81:0.536946 82:0.543147 83:0.572139 84:0.570732 85:0.62 86:0.49505 87:0.42439 88:0.462264 89:0.69 90:0.650485 91:-0.13615 92:-0.129187 93:-0.0497738 94:-0.0331754 95:-0.0775862 96:0.0865385 97:0.105528 98:0.167464 99:0.178218 100:0.237624 101:0.263682 102:0.362745 103:0.294686 104:0.349515 105:0.427136 106:0.462687 107:0.487437 108:0.5 109:0.563107 110:0.543147 111:0.47619 112:0.497487 113:0.471154 114:0.51 115:0.388889 116:0.49505 117:0.21 118:0.34 119:0.564356 120:0.615764 121:-0.130841 122:-0.162562 123:-0.107843 124:0.0190476 125:-0.019802 126:0.106796 127:0.115385 128:0.0918367 129:0.138614 130:0.158416 131:0.21 132:0.336683 133:0.278846 134:0.330097 135:0.372549 136:0.44 137:0.451777 138:0.453659 139:0.497537 140:0.480392 141:0.497585 142:0.457143 143:0.442308 144:0.460784 145:0.473171 146:0.437186 147:0.363636 148:0.361502 149:0.534653 150:0.522388 151:-0.117117 152:-0.227723 153:-0.134615 154:-0.0588235 155:-0.00961538 157:-0.0239234 158:-0.118812 159:-0.0646766 160:-0.0862944 161:-0.0351759 162:2.22045e-016 163:0.0322581 164:0.0526316 165:0.165829 166:0.175258 167:0.193878 168:0.187817 169:0.161616 170:0.23301 171:0.291866 172:0.366337 173:0.323671 174:0.266667 175:0.326923 176:0.365854 177:0.401961 178:0.443396 179:0.504854 180:0.49 181:-0.141509 182:-0.163462 183:-0.196172 184:-0.153846 185:-0.158416 186:-0.182266 187:-0.323077 188:-0.287129 189:-0.173077 190:-0.204188 191:-0.208333 192:-0.301724 193:-0.336449 194:-0.246231 195:-0.378378 196:-0.220513 197:-0.229167 198:-0.237113 199:-0.274611 200:-0.18408 201:-0.0547264 202:-0.0679612 203:0.123153 204:0.0891089 205:0.217822 206:0.23445 207:0.222749 208:0.283721 209:0.310044 210:0.43 211:-0.0909091 212:-0.262222 213:-0.257143 214:-0.251185 215:-0.231527 216:-0.286432 217:-0.346734 218:-0.278351 219:-0.182692 220:-0.157895 221:-0.0833333 222:-0.0753769 223:-0.0890052 224:-0.208333 225:-0.315315 226:-0.349754 227:-0.350515 228:-0.377551 229:-0.417476 230:-0.291262 231:-0.318386 232:-0.196262 233:-0.107843 234:-0.0384615 235:0.0724638 236:0.144279 237:0.242718 238:0.227907 239:0.259259 240:0.305556 241:-0.28 242:-0.259615 243:-0.215311 244:-0.384615 245:-0.286385 246:-0.270142 247:-0.271845 248:-0.227513 249:-0.237624 250:-0.0984456 251:-0.0052356 252:-0.00980392 253:0.0204082 254:0.0516432 255:0.168421 256:0.116505 257:-0.1 258:-0.20603 259:-0.252427 260:0.368932 261:0.058296 262:-0.0747664 263:-0.0186916 264:-0.0422535 265:-0.0873786 266:-0.0146341 267:-0.0447761 268:0.133005 269:0.0545455 270:0.194313 271:-0.37561 272:-0.258929 273:-0.244019 274:-0.320574 275:-0.285714 276:-0.366972 277:-0.345794 278:-0.375 279:-0.269231 280:-0.261261 281:-0.160976 282:-0.219298 283:-0.105769 284:-0.0648148 285:-0.106796 286:-0.0717703 287:-0.0909091 288:-0.101852 289:-0.190244 290:-0.205607 291:-0.198157 292:-0.317972 293:-0.330275 294:-0.247619 295:-0.301887 296:-0.219048 297:-0.115385 298:-0.0377358 299:-0.0891089 300:-0.0196078 301:-0.515695 302:-0.157895 303:-0.264574 304:-0.566038 305:-0.37963 306:-0.364055 307:-0.266968 308:-0.342593 309:-0.261084 310:-0.207547 311:-0.207729 312:-0.19598 313:-0.261084 314:-0.268293 315:-0.317073 316:-0.378641 317:-0.302326 318:-0.38835 319:-0.414414 320:-0.377193 321:-0.285714 322:-0.330275 323:-0.35545 324:-0.317972 325:-0.333333 326:-0.336406 327:-0.43128 328:0.00862069 329:-0.138756 330:-0.201794 331:-0.417476 332:-0.366337 333:-0.4375 334:-0.266055 335:-0.317757 336:-0.352941 337:-0.260274 338:-0.333333 339:-0.378641 340:-0.423256 341:-0.472222 342:-0.488584 343:-0.46 344:-0.441176 345:-0.315315 346:-0.399103 347:-0.453704 348:-0.555556 349:-0.534247 350:-0.506849 351:-0.414414 352:-0.418182 353:-0.382488 354:-0.342723 355:-0.339535 356:-0.383178 357:-0.299065 358:-0.345622 359:0.0232558 360:-0.0714286 361:-0.527094 362:-0.541463 363:-0.28 364:-0.101852 365:-0.268519 366:-0.493088 367:-0.33945 368:-0.418182 369:-0.431373 370:-0.584541 371:-0.368889 372:-0.431373 373:-0.411168 374:-0.147059 375:-0.193717 376:-0.323671 377:-0.474654 378:-0.20197 379:-0.05 380:-0.305164 381:-0.336364 382:-0.207373 383:-0.376744 384:-0.446009 385:-0.283019 386:-0.324074 387:-0.28972 388:-0.274419 389:-0.208889 390:0.103139 391:-0.402844 392:-0.543689 393:-0.36 394:-0.0506912 395:-0.121951 396:-0.254545 397:-0.386047 398:-0.466063 399:-0.555556 400:-0.609302 401:-0.502347 402:-0.399142 403:-0.236559 404:0.137255 405:0.0558376 406:-0.134021 407:-0.12963 408:-0.288889 409:-0.145631 410:-0.227053 411:-0.0873786 412:0.0813397 413:-0.126126 414:-0.285714 415:-0.25 416:-0.237209 417:-0.339367 418:-0.283019 419:-0.275229 420:-0.0545455 421:-0.187215 422:-0.530516 423:-0.369369 424:-0.113043 425:0.0140845 426:-0.0357143 427:-0.190909 428:-0.436893 429:-0.504854 430:-0.665116 431:-0.774648 432:-0.253589 433:-0.0208333 434:0.195767 435:0.232432 436:0.0515464 437:0.0680628 438:-0.019802 439:-0.107143 440:-0.0208333 441:0.198157 442:0.333333 443:-0.0313901 444:-0.0103093 445:-0.20603 446:0.0149254 447:-0.0813397 448:-0.128205 449:-0.223301 450:0.247706 451:-0.208889 452:-0.566038 453:-0.348416 454:-0.251101 455:-0.0769231 456:0.0769231 457:-0.0798122 458:-0.245098 459:-0.417476 460:-0.502183 461:-0.693122 462:-0.458716 463:-0.105023 464:0.147368 465:0.322917 466:0.293532 467:0.223881 468:-0.0313901 469:0.15534 470:0.142857 471:0.130045 472:0.0761905 474:0.0351759 475:-0.0447761 477:0.0144928 478:-0.0818182 479:-0.140187 480:0.220183 481:-0.278539 482:-0.590476 483:-0.388128 484:-0.215311 485:-0.0511628 486:0.0810811 488:-0.0582524 489:-0.138756 490:-0.2103 491:-0.399015 492:-0.592593 493:-0.432558 494:-0.299539 495:-0.0805687 496:0.0618557 497:0.103448 498:-0.0926829 499:-0.046729 500:-0.0849057 501:0.0291262 502:0.0185185 503:-0.107143 504:0.0313901 505:0.0366972 506:0.0686275 507:0.154229 508:0.0277778 509:-0.0747664 510:0.0616114 511:-0.299539 512:-0.54717 513:-0.352113 514:-0.295154 515:-0.203883 516:0.0642202 517:0.0384615 518:0.0837438 519:0.039604 520:-0.0484581 521:-0.19403 522:-0.321101 523:-0.3125 524:-0.263158 525:-0.252525 526:-0.175824 527:-0.169643 528:-0.12766 529:-0.169082 530:-0.0251256 531:-0.00909091 532:0.125628 533:0.263158 534:0.222749 535:0.165049 536:0.20202 537:0.254545 538:-0.029703 539:-0.0439024 540:-0.156863 541:-0.222749 542:-0.490741 543:-0.408072 544:-0.309417 545:-0.196262 546:-0.0234742 547:0.0230415 548:0.0566038 549:0.0793651 550:-0.0480349 551:-0.120773 552:-0.182266 553:-0.103093 554:-0.104167 555:-0.155779 556:0.00546448 557:-0.010989 558:-0.0461538 559:-0.0837438 560:-0.0606061 561:0.0309278 562:0.195767 563:0.326087 564:0.13615 565:0.138889 566:0.304762 567:0.0776699 568:0.247619 569:0.0251256 570:-0.487437 571:-0.147059 572:-0.497835 573:-0.431193 574:-0.290323 575:-0.268293 576:-0.140271 577:0.149533 578:0.180488 579:0.0761905 580:0.147059 581:0.0106383 582:-0.0821256 583:-0.0485437 584:-0.313433 585:-0.00518135 586:0.0606061 587:0.0480769 588:0.030303 589:0.0802139 590:0.111111 591:-0.138756 592:-0.039604 593:0.107527 594:0.0967742 595:0.198157 596:0.295238 597:-0.196078 598:0.045045 599:-0.0380952 600:-0.536946 601:-0.105991 602:-0.402844 603:-0.419355 604:-0.244444 605:-0.286432 606:-0.149758 607:0.111111 608:0.165049 609:0.167464 610:0.158416 611:0.0899471 612:0.0693069 613:-0.0776256 614:-0.179245 615:-0.125 616:0.0945274 617:0.122449 618:0.0819672 619:0.0752688 620:-0.0165746 621:-0.0964467 622:-0.0566038 623:0.195767 624:0.297561 625:0.262136 626:0.257143 627:-0.101449 628:-0.205357 629:-0.345972 630:-0.274419 631:-0.19802 632:-0.300971 633:-0.4375 634:-0.274419 635:-0.180488 636:-0.137255 637:0.044335 638:-0.00444444 639:0.144231 640:0.137441 641:0.262136 642:0.150259 643:0.114286 644:0.119617 645:0.124378 646:0.05 647:0.00502513 648:-0.00558659 649:0.0481283 650:0.0645161 651:0.193548 652:0.278689 653:0.312821 654:0.317073 655:0.4 656:0.103448 657:-0.127962 658:-0.15493 659:-0.0976744 660:0.036036 661:-0.513761 662:-0.0943396 663:-0.345622 664:-0.323529 665:-0.306122 666:-0.116751 667:-0.0648148 668:0.14554 669:0.128713 670:0.142857 671:0.304762 672:0.297872 673:0.253731 674:0.246231 675:0.301435 676:0.169231 677:0.0638298 678:0.13 679:0.129534 680:0.247312 681:0.308511 682:0.34375 683:0.287958 684:0.271845 685:0.300971 686:0.0945274 687:-0.0344828 688:-0.23 689:0.101852 690:0.170732 691:-0.654822 692:-0.186603 693:-0.00483092 694:-0.236715 695:-0.294118 696:-0.153061 697:-0.112245 698:0.0610329 699:0.0829268 700:0.0980392 701:0.170507 702:0.230769 703:0.323944 704:0.244019 705:0.302564 706:0.286432 707:0.350515 708:0.3125 709:0.326531 710:0.347368 711:0.365079 712:0.329843 713:0.22549 714:0.138614 715:0.181347 716:-0.030303 717:-0.226415 718:-0.0351759 719:0.196347 720:0.102439 721:-0.541463 722:-0.535545 723:0.0704225 724:0.161616 725:-0.190244 726:-0.291866 727:-0.18593 729:0.0348259 730:0.0505051 731:0.152074 732:0.177665 733:0.21393 734:0.323383 735:0.302564 736:0.306931 737:0.427136 738:0.404255 739:0.333333 740:0.384615 741:0.407407 742:0.298429 743:0.101449 744:0.0729167 745:0.228426 746:-0.038835 747:-0.326829 748:0.0995261 749:0.186916 750:0.0829268 751:-0.583756 752:-0.35 753:-0.518519 754:-0.107843 755:0.313725 756:-0.0251256 757:-0.196078 758:-0.0380952 759:0.0452261 760:0.165049 761:0.129187 762:0.198113 763:0.27 764:0.296482 765:0.285714 766:0.316583 767:0.380711 768:0.350254 769:0.273684 770:0.279188 771:0.354497 772:0.308901 773:0.0738916 774:0.035533 775:0.121212 776:-0.212963 777:-0.207729 778:0.0243902 779:0.102804 780:0.186916 781:-0.612245 782:-0.445545 783:-0.353234 784:-0.488152 785:-0.25 786:0.246512 787:0.280788 788:0.0604651 789:0.107843 790:0.154229 791:0.194444 792:0.136364 793:0.211823 794:0.197917 795:0.268041 796:0.212121 797:0.286432 798:0.268041 799:0.181347 800:0.20202 801:0.28125 802:0.28866 803:0.0824742 804:-0.0558376 805:-0.261084 806:-0.242009 807:-0.138614 808:0.0582524 809:0.07109 810:0.240741 811:-0.525581 812:-0.444444 813:-0.386792 814:-0.399061 815:-0.244019 816:-0.360731 817:0.273585 818:0.808612 819:0.376744 820:0.31 821:0.25 822:0.150442 823:0.170732 824:0.22449 825:0.256039 826:0.245098 827:0.248731 828:0.216495 829:0.212435 830:0.231579 831:0.216495 832:0.258883 833:-0.0309278 834:-0.188119 835:-0.0954774 836:-0.235849 837:-0.101449 838:0.014218 839:0.0311111 840:0.171806 841:-0.563981 842:-0.544554 843:-0.375566 844:-0.38835 845:-0.346154 846:-0.31068 847:-0.305936 848:-0.127962 849:0.0188679 850:0.1 851:0.0738916 852:0.0818182 853:0.00483092 854:0.170984 855:0.168224 856:0.0880829 857:0.191919 858:0.0447761 859:0.019802 860:-0.00518135 861:-0.078534 862:-0.115578 863:-0.0659898 864:0.0871795 865:0.135922 866:-0.153846 867:0.0521327 868:0.0566038 869:0.0967742 870:0.162162 871:-0.64532 872:-0.511737 873:-0.333333 874:-0.355769 875:-0.359223 876:-0.368421 877:-0.213592 878:-0.198113 879:-0.196262 880:-0.125 881:-0.22 882:-0.170507 883:-0.181818 884:-0.169231 885:-0.0516432 886:-0.144279 887:-0.06 888:-0.122449 889:-0.00990099 890:0.030303 891:0.120773 892:0.168317 893:0.176471 894:0.238579 895:0.145631 896:-0.0865385 897:0.128713 898:0.112195 899:0.172727 900:0.137931 
0.1201205784143587 1:-0.785366 2:-0.804651 3:-0.739535 4:-0.87619 5:-0.85 6:-0.714286 7:-0.738693 8:-0.763547 9:-0.303483 10:0.08 11:0.219512 12:0.422886 13:0.482587 14:0.52381 15:0.605911 16:0.660194 17:0.701493 18:0.718593 19:0.754902 20:0.717172 21:0.726829 22:0.810945 23:0.794118 24:0.821782 25:0.810945 26:0.802956 27:0.82 28:0.833333 29:0.798077 30:0.752212 31:-0.719626 32:-0.846154 33:-0.752294 34:-0.829384 35:-0.776699 36:-0.745283 37:-0.838863 38:-0.742574 39:-0.19598 40:0.0909091 41:0.20603 42:0.376884 43:0.51269 44:0.567839 45:0.592233 46:0.655172 47:0.668342 48:0.747573 49:0.722772 50:0.789474 51:0.718593 52:0.765854 53:0.786408 54:0.785366 55:0.8 56:0.808081 57:0.825243 58:0.852217 59:0.84689 60:0.814634 61:-0.529954 62:-0.85782 63:-0.740741 64:-0.800995 65:-0.735849 66:-0.705882 67:-0.888889 68:-0.769585 69:-0.0653266 70:0.142857 71:0.168317 72:0.412935 73:0.497537 74:0.598039 75:0.627451 76:0.697561 77:0.712871 78:0.757576 79:0.75 80:0.772277 81:0.73399 82:0.695431 83:0.771144 84:0.77561 85:0.79 86:0.792079 87:0.795122 88:0.707547 89:0.81 90:0.84466 91:-0.380282 92:-0.856459 93:-0.710407 94:-0.753555 95:-0.715517 96:-0.692308 97:-0.949749 98:-0.54067 99:-1.11022e-016 100:0.128713 101:0.21393 102:0.441176 103:0.478261 104:0.572816 105:0.628141 106:0.671642 107:0.708543 108:0.74 109:0.776699 110:0.736041 111:0.67619 112:0.668342 113:0.701923 114:0.71 115:0.648148 116:0.772277 117:0.81 118:0.75 119:0.811881 120:0.832512 121:-0.308411 122:-0.852217 123:-0.77451 124:-0.714286 125:-0.772277 126:-0.76699 127:-0.798077 128:-0.418367 129:0.108911 130:0.148515 131:0.28 132:0.477387 133:0.480769 134:0.553398 135:0.598039 136:0.7 137:0.725888 138:0.707317 139:0.714286 140:0.72549 141:0.661836 142:0.685714 143:0.711538 144:0.754902 145:0.726829 146:0.738693 147:0.757576 148:0.680751 149:0.772277 150:0.791045 151:-0.288288 152:-0.752475 153:-0.663462 154:-0.77451 155:-0.682692 156:-0.831683 157:-0.598086 158:-0.108911 159:0.0547264 160:0.167513 161:0.376884 162:0.520408 163:0.419355 164:0.444976 165:0.628141 166:0.752577 167:0.765306 168:0.756345 169:0.727273 170:0.708738 171:0.636364 172:0.693069 173:0.671498 174:0.619048 175:0.663462 176:0.697561 177:0.754902 178:0.707547 179:0.747573 180:0.76 181:-0.339623 182:-0.375 183:-0.406699 184:-0.653846 185:-0.712871 186:-0.743842 187:-0.333333 188:0.138614 189:0.0192308 190:0.21466 191:0.458333 192:0.232759 193:0.233645 194:0.517588 195:0.432432 196:0.682051 197:0.78125 198:0.783505 199:0.740933 200:0.681592 201:0.711443 202:0.640777 203:0.674877 204:0.613861 205:0.712871 206:0.684211 207:0.611374 208:0.627907 209:0.606987 210:0.76 211:-0.320574 212:-0.333333 213:-0.419048 214:-0.658768 215:-0.793103 216:-0.648241 217:0.0351759 218:0.164948 219:0.0673077 220:0.115789 221:0.260417 222:0.19598 223:0.0890052 224:0.302083 225:0.315315 226:0.517241 227:0.670103 228:0.642857 229:0.592233 230:0.582524 231:0.408072 232:0.588785 233:0.617647 234:0.548077 235:0.594203 236:0.661692 237:0.669903 238:0.581395 239:0.62963 240:0.675926 241:-0.37 242:-0.346154 243:-0.416268 244:-0.835897 245:-0.652582 246:-0.260664 247:0.223301 248:0.132275 249:-0.0594059 250:-0.108808 251:0.026178 252:-0.0490196 253:-0.112245 254:0.0234742 255:0.252632 256:0.407767 257:0.43 258:0.366834 259:0.339806 260:0.291262 261:0.282511 262:0.35514 263:0.439252 264:0.455399 265:0.533981 266:0.629268 267:0.60199 268:0.596059 269:0.563636 270:0.687204 271:-0.385366 272:-0.330357 273:-0.54067 274:-0.69378 275:-0.409524 276:2.22045e-016 277:0.336449 278:0.09375 279:-0.144231 280:-0.126126 281:-0.102439 282:-0.0964912 283:-0.125 284:-0.0555556 286:0.0813397 287:0.0909091 288:0.0555556 289:0.0829268 290:-0.0280374 291:-0.0230415 292:0.0414747 293:0.0550459 294:0.180952 295:0.198113 296:0.266667 297:0.365385 298:0.424528 299:0.564356 300:0.627451 301:-0.41704 302:-0.253589 303:-0.408072 304:-0.764151 305:-0.231481 306:0.142857 307:0.257919 308:-0.101852 309:-0.231527 310:-0.132075 311:-0.0338164 312:0.0753769 313:0.0541872 314:-0.0536585 315:0.0243902 316:-0.0194175 317:0.0139535 318:-0.174757 319:-0.288288 320:-0.245614 321:-0.285714 322:-0.321101 323:-0.402844 324:-0.327189 325:-0.324201 326:-0.21659 327:-0.0805687 328:0.0603448 329:0.291866 330:0.300448 331:-0.38835 332:-0.287129 333:-0.401786 334:-0.669725 335:-0.0373832 336:0.205882 337:0.159817 338:-0.0882353 339:-0.252427 340:-0.134884 341:0.00925926 342:0.105023 343:0.23 344:0.235294 345:0.243243 346:0.0941704 347:0.12037 348:-0.0338164 349:-0.0776256 350:-0.150685 351:-0.135135 352:-0.227273 353:-0.364055 354:-0.352113 355:-0.460465 356:-0.383178 357:-0.317757 358:-0.225806 359:-0.0511628 360:0.0714286 361:-0.389163 362:-0.307317 363:-0.493333 364:-0.481481 365:0.0648148 366:0.0967742 367:0.0917431 368:-0.0909091 369:-0.176471 370:-0.111111 371:-0.0755556 372:-0.0196078 373:0.0761421 374:0.294118 375:0.21466 376:0.285024 377:0.281106 378:0.20197 379:0.21 380:0.201878 381:0.0272727 382:0.0322581 383:-0.106977 384:-0.173709 385:-0.254717 386:-0.333333 387:-0.336449 388:-0.348837 389:-0.253333 390:-0.0941704 391:-0.317536 392:-0.417476 393:-0.6 394:-0.290323 395:0.180488 396:0.0909091 397:0.0697674 398:-0.0859729 399:-0.178744 400:-0.125581 401:-0.0892019 402:-0.227468 403:-0.290323 404:-0.0686275 405:-0.0761421 406:-0.206186 407:-0.148148 408:-0.431111 409:-0.116505 410:0.0144928 411:-0.174757 412:0.00478469 413:-0.0630631 414:-0.190476 415:-0.201923 416:-0.218605 417:-0.257919 418:-0.264151 419:-0.311927 420:-0.145455 421:-0.324201 422:-0.41784 423:-0.567568 424:-0.104348 425:0.192488 426:0.205357 427:0.127273 428:0.038835 429:-0.0485437 430:-0.209302 431:-0.230047 432:-0.397129 433:-0.322917 434:-0.132275 435:-0.286486 436:-0.463918 437:-0.528796 438:-0.80198 439:-0.651786 440:-0.135417 441:-0.16129 442:0.0646766 443:-0.0313901 444:0.257732 445:0.105528 446:-0.114428 447:-0.177033 448:-0.17094 449:-0.203883 450:-0.183486 451:-0.342222 452:-0.40566 453:-0.420814 454:-0.0484581 455:0.140271 456:0.176471 457:0.0892019 458:0.215686 459:0.0970874 460:-0.179039 461:-0.153439 462:-0.201835 463:-0.214612 464:-0.0842105 465:-0.15625 466:-0.293532 467:-0.243781 468:-0.524664 469:-0.368932 470:-0.265306 471:0.130045 472:0.380952 473:0.231481 474:-0.115578 475:-0.0447761 476:0.205882 477:0.275362 478:-0.0181818 479:-0.317757 480:-0.174312 481:-0.360731 482:-0.380952 483:-0.369863 484:0.119617 485:0.144186 486:0.234234 487:0.165049 488:0.378641 489:0.311005 490:-0.00429185 491:0.0246305 492:0.111111 493:0.125581 494:0.115207 495:0.260664 496:0.340206 497:0.0738916 498:-0.190244 499:-0.102804 500:0.226415 501:0.592233 502:0.583333 503:0.410714 504:0.0493274 505:-0.119266 506:-0.107843 507:0.303483 508:0.481481 509:-0.0654206 510:-0.222749 511:-0.493088 512:-0.235849 513:-0.0516432 514:-0.0132159 515:0.145631 516:0.256881 517:0.25 518:0.527094 519:0.544554 520:0.23348 521:0.323383 522:0.33945 523:0.46875 524:0.505263 525:0.474747 526:0.472527 527:0.357143 528:0.56383 529:0.536232 530:0.718593 531:0.545455 532:0.748744 533:0.705263 534:0.440758 535:0.378641 536:0.373737 537:0.227273 538:0.683168 539:0.24878 540:0.0392157 541:-0.554502 542:0.0740741 543:-0.0403587 544:-0.0313901 545:0.168224 546:0.14554 547:0.290323 548:0.471698 549:0.608466 550:0.275109 551:0.333333 552:0.408867 553:0.57732 554:0.614583 555:0.547739 556:0.693989 557:0.604396 558:0.466667 559:0.399015 560:0.434343 561:0.443299 562:0.57672 563:0.597826 564:0.455399 565:0.537037 566:0.685714 567:0.699029 568:0.657143 569:0.366834 570:0.286432 571:-0.431373 572:0.125541 573:2.22045e-016 574:-0.0414747 575:0.102439 576:0.122172 577:0.411215 578:0.590244 579:0.580952 580:0.539216 581:0.37234 582:0.381643 583:0.514563 584:0.562189 585:0.471503 586:0.484848 587:0.490385 588:0.505051 589:0.582888 590:0.597884 591:0.38756 592:0.554455 593:0.623656 594:0.56682 595:0.603687 596:0.6 597:0.637255 598:0.477477 599:0.333333 600:0.310345 601:-0.327189 602:0.402844 603:0.0506912 604:0.04 605:0.0150754 606:0.217391 607:0.449275 608:0.582524 609:0.674641 610:0.613861 611:0.407407 612:0.39604 613:0.47032 614:0.632075 615:0.645833 616:0.681592 617:0.755102 618:0.715847 619:0.784946 620:0.790055 621:0.695431 622:0.575472 623:0.724868 624:0.678049 625:0.533981 626:0.504762 627:0.536232 628:0.383929 629:0.327014 630:0.311628 631:-0.346535 632:0.368932 633:0.0535714 634:0.0232558 635:0.0926829 636:0.235294 637:0.46798 638:0.44 639:0.653846 640:0.601896 641:0.572816 642:0.388601 643:0.428571 644:0.617225 645:0.691542 646:0.68 647:0.718593 648:0.832402 649:0.828877 650:0.806452 651:0.763441 652:0.770492 653:0.620513 654:0.580488 655:0.64 656:0.55665 657:0.488152 658:0.446009 659:0.451163 660:0.36036 661:-0.458716 662:0.122642 663:0.105991 664:-0.0294118 665:0.0714286 666:0.279188 667:0.398148 668:0.615023 669:0.712871 670:0.73399 671:0.666667 672:0.531915 673:0.512438 674:0.658291 675:0.703349 676:0.671795 677:0.691489 678:0.75 679:0.678756 680:0.763441 681:0.617021 682:0.666667 683:0.570681 684:0.660194 685:0.660194 686:0.641791 687:0.477833 688:0.46 689:0.416667 690:0.531707 691:-0.167513 692:0.157895 693:-0.0241546 694:0.0628019 696:0.244898 697:0.428571 698:0.633803 699:0.687805 700:0.72549 701:0.631336 702:0.558974 703:0.633803 704:0.655502 705:0.671795 706:0.557789 707:0.649485 708:0.6875 709:0.561224 710:0.642105 711:0.724868 712:0.73822 713:0.686275 714:0.722772 715:0.709845 716:0.515152 717:0.415094 718:0.417085 719:0.369863 720:0.580488 721:0.0146341 722:0.137441 723:0.0234742 724:-0.0505051 725:0.0634146 726:0.157895 727:0.366834 728:0.590476 729:0.671642 730:0.747475 731:0.640553 732:0.583756 733:0.59204 734:0.671642 735:0.661538 736:0.564356 737:0.61809 738:0.691489 739:0.610256 740:0.651282 741:0.756614 742:0.759162 743:0.719807 744:0.739583 745:0.614213 746:0.504854 747:0.443902 748:0.336493 749:0.420561 750:0.64878 751:-0.0964467 752:0.13 753:-0.0648148 754:-0.0196078 755:0.0686275 756:0.266332 757:0.401961 758:0.514286 759:0.567839 760:0.708738 761:0.617225 762:0.59434 763:0.62 764:0.638191 765:0.602041 766:0.668342 767:0.64467 768:0.736041 769:0.736842 770:0.715736 771:0.746032 772:0.790576 773:0.73399 774:0.715736 775:0.555556 776:0.481481 777:0.42029 778:0.297561 779:0.457944 780:0.766355 781:0.0102041 782:-0.0693069 783:-0.00497512 784:-0.0805687 785:0.15 786:0.237209 787:0.369458 788:0.44186 789:0.45098 790:0.621891 791:0.62037 792:0.590909 793:0.566502 794:0.729167 795:0.721649 796:0.646465 797:0.718593 798:0.783505 799:0.740933 800:0.747475 801:0.729167 802:0.742268 803:0.752577 804:0.715736 805:0.389163 806:0.378995 807:0.386139 808:0.359223 809:0.57346 810:0.787037 811:0.153488 812:0.010101 813:-0.113208 814:0.0328638 815:0.138756 816:0.223744 817:0.330189 818:0.38756 819:0.348837 820:0.56 821:0.567308 822:0.539823 823:0.560976 824:0.673469 825:0.758454 826:0.696078 827:0.736041 828:0.762887 829:0.792746 830:0.831579 831:0.731959 832:0.736041 833:0.701031 834:0.633663 835:0.427136 836:0.207547 837:0.285024 838:0.336493 839:0.466667 840:0.744493 841:0.0521327 842:-0.019802 843:-0.19457 844:0.0679612 845:0.0673077 846:0.281553 847:0.278539 848:0.421801 849:0.433962 850:0.46 851:0.46798 852:0.481818 853:0.52657 854:0.678756 855:0.672897 856:0.709845 857:0.787879 858:0.781095 859:0.782178 860:0.813472 861:0.748691 862:0.748744 863:0.634518 864:0.589744 865:0.31068 866:0.173077 867:0.412322 868:0.40566 869:0.557604 870:0.801802 871:-0.133005 872:-0.0704225 873:-0.152381 874:0.0673077 875:0.116505 876:0.157895 877:0.291262 878:0.396226 879:0.429907 880:0.403846 881:0.46 882:0.511521 883:0.545455 884:0.671795 885:0.737089 886:0.711443 887:0.76 888:0.744898 889:0.811881 890:0.757576 891:0.700483 892:0.663366 893:0.666667 894:0.553299 895:0.203883 896:0.336538 897:0.544554 898:0.502439 899:0.645455 900:0.767241 
0.5518647602372713 1:0.570732 2:0.618605 3:0.562791 4:0.514286 5:0.63 6:0.56682 7:0.457286 8:0.477833 9:0.422886 10:0.42 11:0.463415 12:0.452736 13:0.442786 14:0.428571 15:0.418719 16:0.475728 17:0.532338 18:0.547739 19:0.568627 20:0.565657 21:0.629268 22:0.631841 23:0.656863 24:0.633663 25:0.691542 26:0.674877 27:0.7 28:0.696078 29:0.673077 30:0.672566 31:0.570093 32:0.625 33:0.559633 34:0.507109 35:0.572816 36:0.40566 37:0.345972 38:0.376238 39:0.296482 40:0.272727 41:0.175879 42:0.105528 43:0.126904 44:0.0552764 45:0.038835 46:0.0147783 47:0.125628 48:0.223301 49:0.29703 50:0.435407 51:0.487437 52:0.473171 53:0.504854 54:0.512195 55:0.6 56:0.626263 57:0.669903 58:0.596059 59:0.674641 60:0.64878 61:0.493088 62:0.279621 63:0.166667 64:0.174129 65:0.179245 66:0.137255 67:0.151515 68:-0.0414747 69:-0.0452261 70:0.336735 71:0.356436 72:0.21393 73:0.133005 74:0.0490196 75:-0.0294118 76:-0.121951 77:-0.108911 78:-0.0606061 79:0.04 80:0.247525 81:0.29064 82:0.340102 83:0.373134 84:0.502439 85:0.55 86:0.564356 87:0.590244 88:0.518868 89:0.62 90:0.660194 91:-0.117371 92:-0.0909091 93:-0.00452489 94:0.194313 95:0.224138 96:0.317308 97:0.236181 98:0.119617 99:-0.0990099 100:0.039604 101:0.253731 102:0.186275 103:0.0724638 104:0.106796 105:0.0452261 106:0.0547264 107:0.0351759 108:-0.09 109:0.00970874 110:-0.0253807 112:0.0351759 113:0.00961538 114:0.12 115:0.194444 116:0.39604 117:0.44 118:0.49 119:0.514851 120:0.586207 121:0.364486 122:0.438424 123:0.431373 124:0.428571 125:0.465347 126:0.349515 127:0.326923 128:0.153061 129:0.0891089 130:-0.0594059 131:-0.11 132:-0.276382 133:-0.336538 134:-0.456311 135:-0.411765 136:-0.41 137:-0.431472 138:-0.278049 139:-0.310345 140:-0.294118 141:-0.294686 142:-0.419048 143:-0.701923 144:-0.460784 145:0.15122 146:0.0854271 147:0.040404 148:0.0516432 149:0.0594059 150:-0.104478 151:0.522523 152:0.425743 153:0.346154 154:0.343137 155:0.365385 156:0.316832 157:0.311005 158:0.207921 159:0.0746269 160:-0.147208 161:-0.0954774 162:-0.0714286 163:-0.170507 164:-0.272727 165:-0.256281 166:-0.319588 167:-0.316327 168:-0.299492 169:-0.20202 170:-0.174757 171:-0.177033 173:0.0531401 174:-0.466667 175:-0.336538 176:0.521951 177:0.588235 178:0.641509 179:0.718447 180:0.64 181:0.433962 182:0.326923 183:0.339713 184:0.259615 185:0.267327 186:0.29064 187:0.210256 188:0.287129 189:0.336538 190:-0.13089 191:0.645833 192:1 193:0.654206 194:-0.336683 195:-0.243243 196:-0.261538 197:-0.3125 198:-0.381443 199:-0.253886 200:-0.00497512 201:-0.313433 202:-0.213592 203:-0.0246305 204:0.227723 205:-0.891089 206:0.186603 207:0.478673 208:0.534884 209:0.528384 210:0.69 211:0.291866 212:0.0577778 213:0.257143 214:0.194313 215:0.1133 216:0.20603 217:0.0653266 218:-0.0721649 219:-0.0769231 220:-0.431579 221:-0.3125 222:0.19598 223:0.193717 224:-0.34375 225:-0.45045 226:-0.487685 227:-0.247423 228:-0.234694 229:0.00970874 230:0.786408 231:0.183857 232:-0.457944 233:-0.0882353 234:0.230769 235:-0.536232 236:-0.223881 237:0.650485 238:0.572093 239:0.638889 240:0.657407 241:0.25 242:0.105769 243:0.186603 244:0.148718 245:0.0892019 246:-0.0331754 247:-0.106796 248:-0.121693 249:0.0693069 250:0.233161 251:0.319372 252:0.362745 253:0.285714 254:0.0610329 255:-0.0736842 256:-0.165049 257:-0.61 258:-0.115578 259:-0.300971 260:-0.262136 261:-0.210762 262:-0.392523 263:-0.261682 264:0.0985915 265:-0.320388 266:-0.356098 267:0.61194 268:0.605911 269:0.590909 270:0.611374 271:0.287805 272:0.0892857 273:0.129187 274:0.100478 275:-0.114286 276:-0.256881 277:0.149533 278:0.104167 279:0.0384615 280:-0.135135 281:-0.190244 282:-0.359649 283:-0.0384615 284:0.0462963 285:0.0291262 286:0.00478469 287:-0.119617 288:-0.259259 289:-0.190244 290:-0.607477 291:-0.373272 292:-0.299539 293:-0.321101 294:0.0190476 295:-0.245283 296:-0.704762 297:-0.0865385 298:-0.0754717 299:0.118812 300:0.107843 301:0.174888 302:0.22488 303:0.112108 304:-0.0943396 305:-0.175926 306:-0.152074 307:0.040724 308:-0.324074 309:-0.389163 310:-0.311321 311:-0.400966 312:-0.316583 313:-0.133005 314:-0.209756 315:-0.287805 317:0.153488 318:0.00970874 319:-0.207207 320:-0.517544 321:-0.466667 322:-0.348624 323:-0.308057 324:-0.0138249 325:-0.305936 326:-0.751152 327:-0.507109 328:-0.258621 329:-0.157895 330:-0.282511 331:0.31068 332:0.29703 333:0.160714 334:0.0183486 335:-0.11215 336:-0.215686 337:-0.251142 338:-0.460784 339:-0.0679612 340:-0.0697674 341:-0.277778 342:-0.305936 343:-0.13 344:-0.264706 345:-0.315315 346:-0.058296 347:0.037037 348:-0.0917874 349:0.0228311 350:-0.0410959 351:-0.18018 352:-0.127273 353:-0.0506912 354:0.183099 355:-0.32093 356:-0.439252 357:0.102804 358:0.483871 359:0.702326 360:0.571429 361:0.428571 362:0.434146 363:0.164444 364:0.0648148 365:-0.0833333 366:-0.170507 367:0.0458716 368:0.0454545 369:0.205882 370:0.178744 371:-0.0488889 372:-0.117647 373:-0.0253807 374:0.166667 375:0.0157068 376:0.217391 377:0.253456 378:-0.123153 379:-0.02 380:0.192488 381:0.154545 382:0.142857 383:0.209302 384:0.192488 385:-0.518868 386:-0.694444 387:-0.0280374 388:0.339535 389:0.493333 390:0.434978 391:0.402844 392:0.359223 393:0.0844444 394:0.235023 395:0.209756 396:0.0363636 397:0.0511628 398:0.122172 399:0.217391 400:0.386047 401:0.43662 402:0.218884 403:0.311828 404:0.392157 405:0.482234 406:0.505155 407:0.425926 408:-0.04 409:0.223301 410:0.246377 411:0.262136 412:0.502392 413:0.252252 414:-0.0666667 415:-0.730769 416:-0.423256 417:0.330317 418:0.688679 419:0.715596 420:0.709091 421:0.16895 422:0.333333 423:0.342342 424:0.330435 425:0.455399 426:0.339286 427:0.2 428:0.0970874 429:0.0679612 430:-0.125581 431:0.0140845 432:0.110048 433:0.104167 434:0.174603 435:0.178378 436:0.309278 437:0.350785 438:0.158416 439:0.0803571 440:0.416667 441:0.317972 442:0.412935 443:-0.246637 444:-0.412371 445:-0.798995 446:0.0149254 447:0.598086 448:0.606838 449:0.718447 450:0.697248 451:0.0133333 452:0.386792 453:0.538462 454:0.348018 455:0.357466 456:0.366516 457:0.211268 458:0.264706 459:0.15534 460:0.0305677 461:0.100529 462:-0.0458716 463:-0.0593607 464:0.0631579 465:-0.0104167 466:0.00497512 467:0.0248756 468:-0.103139 469:0.0194175 470:0.132653 471:0.0852018 472:0.047619 473:-0.425926 474:-0.668342 475:-0.542289 476:0.323529 477:0.671498 478:0.590909 479:0.654206 480:0.688073 481:-0.00456621 482:0.447619 483:0.579909 484:0.626794 485:0.376744 486:0.243243 487:0.194175 488:0.271845 489:0.320574 490:0.2103 491:0.211823 492:0.111111 493:0.116279 494:0.0506912 495:0.014218 496:0.0721649 497:0.123153 498:-0.121951 499:-0.0560748 500:-0.0377358 501:0.0970874 502:0.0833333 503:-0.241071 504:-0.686099 505:-0.12844 506:0.529412 507:0.791045 508:0.731481 509:0.682243 510:0.649289 511:-0.00460829 512:0.415094 513:0.624413 514:0.515419 515:0.407767 516:0.266055 517:0.182692 518:0.320197 519:0.465347 520:0.277533 521:0.263682 522:0.192661 523:0.1875 524:0.210526 525:0.121212 526:0.10989 527:-0.00892857 528:0.0531915 529:0.0144928 530:0.19598 531:0.0909091 532:0.0854271 533:-0.242105 534:-0.0900474 535:0.320388 536:0.565657 537:0.690909 538:0.861386 539:0.804878 540:0.735294 541:0.0521327 542:0.472222 543:0.515695 544:0.390135 545:0.411215 546:0.323944 547:0.262673 548:0.226415 549:0.375661 550:0.248908 551:0.227053 552:0.270936 553:0.329897 554:0.25 555:0.105528 556:0.213115 557:0.208791 558:0.0974359 559:0.123153 560:0.323232 561:0.237113 562:-0.206349 563:-0.163043 564:0.314554 565:0.314815 566:0.52381 567:0.786408 568:0.857143 569:0.829146 570:0.718593 571:0.127451 572:0.281385 573:0.458716 574:0.391705 575:0.326829 576:0.257919 577:0.345794 578:0.385366 579:0.171429 580:0.333333 581:0.212766 582:0.188406 583:0.194175 584:0.21393 585:0.202073 586:0.262626 587:0.269231 588:0.262626 589:0.42246 590:0.460317 591:-0.148325 592:-0.415842 593:0.247312 594:0.391705 595:0.410138 596:0.628571 597:0.843137 598:0.846847 599:0.72381 600:0.724138 601:0.262673 602:0.35545 603:0.465438 604:0.395556 605:0.396985 606:0.391304 607:0.410628 608:0.368932 609:0.282297 610:0.277228 611:0.259259 612:0.237624 613:0.114155 614:0.301887 615:0.28125 616:0.383085 617:0.438776 618:0.398907 619:0.548387 620:0.038674 621:-0.482234 622:-0.0377358 623:0.502646 624:0.521951 625:0.563107 626:0.742857 627:0.826087 628:0.776786 629:0.696682 630:0.665116 631:0.50495 632:0.398058 633:0.392857 634:0.413953 635:0.482927 636:0.470588 637:0.487685 638:0.324444 639:0.317308 640:0.260664 641:0.407767 642:0.367876 643:0.361905 644:0.454545 645:0.393035 646:0.35 647:0.417085 648:0.441341 649:0.0374332 650:-0.462366 651:0.0215054 652:0.551913 653:0.435897 654:0.6 655:0.76 656:0.763547 657:0.810427 658:0.840376 659:0.823256 660:0.702703 661:0.66055 662:0.679245 663:0.502304 664:0.470588 665:0.408163 666:0.492386 667:0.37963 668:0.492958 669:0.415842 670:0.37931 671:0.47619 672:0.457447 673:0.482587 674:0.457286 675:0.464115 676:0.435897 677:0.287234 678:-0.05 679:-0.336788 680:0.139785 681:0.414894 682:0.46875 683:0.434555 684:0.68932 685:0.757282 686:0.810945 687:0.91133 688:0.87 689:0.814815 690:0.795122 691:-0.208122 692:0.00478469 693:0.961353 694:0.816425 695:0.656863 696:0.653061 697:0.510204 698:0.502347 699:0.434146 700:0.431373 701:0.437788 702:0.507692 703:0.549296 704:0.454545 705:0.34359 706:0.00502513 707:-0.103093 708:-0.0625 709:0.0816327 710:0.473684 711:0.470899 712:0.340314 713:0.578431 714:0.712871 715:0.772021 716:0.777778 717:0.849057 718:0.869347 719:0.753425 720:0.726829 721:0.00487805 722:-0.241706 723:-0.389671 724:-0.171717 725:0.385366 726:0.37799 727:0.577889 728:0.733333 729:0.731343 730:0.737374 731:0.603687 732:0.51269 733:0.353234 734:0.124378 735:0.0358974 736:0.19802 737:-0.00502513 738:0.148936 739:0.435897 740:0.415385 741:0.333333 742:0.424084 743:0.603865 744:0.666667 745:0.725888 746:0.805825 747:0.892683 748:0.838863 749:0.794393 750:0.678049 751:0.147208 753:-0.0740741 754:-0.156863 755:-0.127451 756:-0.0653266 757:0.0294118 758:0.133333 759:0.226131 760:0.271845 761:0.263158 762:0.216981 763:0.34 764:0.386935 765:0.265306 766:0.165829 767:0.147208 768:0.51269 769:0.431579 770:0.238579 771:0.375661 772:0.528796 773:0.536946 774:0.532995 775:0.626263 776:0.768519 777:0.864734 778:0.814634 779:0.691589 780:0.775701 781:0.22449 782:-0.0891089 783:-0.0447761 784:-0.0331754 785:0.03 786:0.106977 787:0.1133 788:0.172093 789:0.245098 790:0.283582 791:0.287037 792:0.245455 793:0.261084 794:0.3125 795:0.381443 796:0.454545 797:0.547739 798:0.587629 799:0.34715 800:0.262626 801:0.34375 802:0.43299 803:0.319588 804:0.401015 805:0.399015 806:0.616438 807:0.732673 808:0.669903 809:0.630332 810:0.62963 811:0.274419 812:0.0606061 813:-0.00943396 814:-0.0704225 815:0.110048 816:0.0502283 817:0.0943396 818:0.129187 819:0.218605 820:0.24 821:0.394231 822:0.389381 823:0.502439 824:0.622449 825:0.719807 826:0.647059 827:0.522843 828:0.474227 829:0.388601 830:0.294737 831:0.206186 832:0.19797 833:0.0927835 834:0.128713 835:0.21608 836:0.433962 837:0.487923 838:0.421801 839:0.36 840:0.348018 841:0.35545 842:0.306931 843:0.19457 844:0.300971 845:0.413462 846:0.466019 847:0.415525 848:0.535545 849:0.632075 850:0.66 851:0.665025 852:0.636364 853:0.574879 854:0.73057 855:0.663551 856:0.658031 857:0.606061 858:0.373134 859:0.336634 860:0.212435 861:-0.151832 862:-0.256281 863:-0.177665 864:-0.00512821 865:0.0291262 866:0.221154 867:0.2891 868:0.301887 869:0.179724 870:0.117117 871:0.37931 872:0.41784 873:0.47619 874:0.471154 875:0.504854 876:0.5 877:0.699029 878:0.688679 879:0.747664 880:0.740385 881:0.76 882:0.695853 883:0.645455 884:0.712821 885:0.699531 886:0.572139 887:0.59 888:0.204082 889:0.277228 890:-0.0707071 891:-0.487923 892:-0.940594 893:-0.833333 894:-0.319797 895:-0.0679612 896:0.0192308 897:0.029703 898:0.0146341 899:-0.0272727 900:-0.112069 
0.9270510986315769 1:0.268293 2:0.404651 3:0.460465 4:0.4 5:0.42 6:0.520737 7:0.477387 8:0.46798 9:0.472637 10:0.49 11:0.512195 12:0.542289 13:0.532338 14:0.514286 15:0.536946 16:0.592233 17:0.58209 18:0.577889 19:0.539216 20:0.555556 21:0.541463 22:0.58209 23:0.588235 24:0.623762 25:0.641791 26:0.635468 27:0.68 28:0.77451 29:0.701923 30:0.707965 31:0.336449 32:0.451923 33:0.422018 34:0.412322 35:0.427184 36:0.443396 37:0.383886 38:0.415842 39:0.457286 40:0.454545 41:0.477387 42:0.537688 43:0.51269 44:0.547739 45:0.524272 46:0.586207 47:0.59799 48:0.572816 49:0.514851 50:0.569378 51:0.557789 52:0.560976 53:0.592233 54:0.639024 55:0.62 56:0.626263 57:0.737864 58:0.73399 59:0.770335 60:0.746341 61:0.447005 62:0.469194 63:0.444444 64:0.412935 65:0.45283 66:0.401961 67:0.434343 68:0.327189 69:0.477387 70:0.479592 71:0.50495 72:0.502488 73:0.507389 74:0.539216 75:0.558824 76:0.531707 77:0.564356 78:0.545455 79:0.56 80:0.564356 81:0.576355 82:0.573604 83:0.59204 84:0.609756 85:0.59 86:0.643564 87:0.726829 88:0.632075 89:0.73 90:0.708738 91:0.455399 92:0.425837 93:0.366516 94:0.383886 95:0.344828 96:0.394231 97:0.437186 98:0.435407 99:0.405941 100:0.425743 101:0.452736 102:0.509804 103:0.429952 104:0.524272 105:0.547739 106:0.522388 107:0.547739 108:0.53 109:0.563107 110:0.573604 111:0.533333 112:0.567839 113:0.538462 114:0.57 115:0.481481 116:0.623762 117:0.65 118:0.68 119:0.683168 120:0.704433 121:0.411215 122:0.369458 123:0.382353 124:0.371429 125:0.366337 126:0.436893 127:0.461538 128:0.438776 129:0.316832 130:0.376238 131:0.45 132:0.497487 133:0.461538 134:0.466019 135:0.5 136:0.53 137:0.502538 138:0.521951 139:0.487685 140:0.509804 141:0.507246 142:0.495238 143:0.548077 144:0.598039 145:0.541463 146:0.577889 147:0.606061 148:0.568075 149:0.613861 150:0.621891 151:0.387387 152:0.356436 153:0.336538 154:0.352941 155:0.384615 156:0.445545 157:0.473684 158:0.366337 159:0.164179 160:0.350254 161:0.437186 162:0.459184 163:0.354839 164:0.406699 165:0.497487 166:0.484536 167:0.44898 168:0.472081 169:0.464646 170:0.456311 171:0.349282 172:0.50495 173:0.497585 174:0.485714 175:0.471154 176:0.55122 177:0.54902 178:0.584906 179:0.621359 180:0.58 181:0.349057 182:0.365385 183:0.358852 184:0.375 185:0.425743 186:0.458128 187:0.384615 188:0.316832 189:0.230769 190:0.340314 191:0.375 192:0.241379 193:0.205607 194:0.286432 195:0.153153 196:0.251282 197:0.25 198:0.247423 199:0.264249 200:0.373134 201:0.313433 202:0.330097 203:0.487685 204:0.485149 205:0.534653 206:0.502392 207:0.43128 208:0.469767 209:0.49345 210:0.61 211:0.330144 212:0.226667 213:0.304762 214:0.374408 215:0.37931 216:0.407035 217:0.386935 218:0.360825 219:0.355769 220:0.357895 221:0.364583 222:0.376884 223:0.308901 224:0.15625 225:0.045045 226:0.0738916 227:0.134021 228:0.204082 229:0.165049 230:0.194175 231:0.156951 232:0.317757 233:0.411765 234:0.413462 235:0.458937 236:0.472637 237:0.504854 238:0.488372 239:0.518519 240:0.546296 241:0.31 242:0.230769 243:0.368421 244:0.333333 245:0.305164 246:0.336493 247:0.339806 248:0.375661 249:0.386139 250:0.316062 251:0.277487 252:0.27451 253:0.234694 254:0.0234742 255:0.0736842 256:0.0970874 257:-0.01 258:0.0452261 259:0.0291262 260:0.116505 261:0.121076 262:0.140187 263:0.280374 264:0.333333 265:0.407767 266:0.453659 267:0.462687 268:0.546798 269:0.509091 270:0.601896 271:0.365854 272:0.214286 273:0.311005 274:0.320574 275:0.304762 276:0.266055 277:0.35514 278:0.333333 279:0.423077 280:0.342342 281:0.258537 282:0.184211 283:0.278846 284:0.240741 285:0.23301 286:0.282297 287:0.215311 288:0.175926 289:0.209756 290:0.0934579 291:0.198157 292:0.262673 293:0.302752 294:0.352381 295:0.330189 296:0.4 297:0.490385 298:0.443396 299:0.613861 300:0.607843 301:0.2287 302:0.330144 303:0.219731 304:0.188679 305:0.240741 306:0.299539 307:0.339367 308:0.268519 309:0.438424 310:0.490566 311:0.507246 312:0.537688 313:0.46798 314:0.42439 315:0.37561 316:0.38835 317:0.451163 318:0.349515 319:0.225225 320:0.210526 321:0.314286 322:0.330275 323:0.336493 324:0.373272 325:0.378995 326:0.456221 327:0.516588 328:0.508621 329:0.665072 330:0.569507 331:0.291262 332:0.336634 333:0.178571 334:0.229358 335:0.317757 336:0.343137 337:0.488584 338:0.578431 339:0.621359 340:0.534884 341:0.555556 342:0.461187 343:0.53 344:0.519608 345:0.423423 346:0.300448 347:0.287037 348:0.0724638 349:0.0410959 350:0.0228311 351:0.0990991 352:0.209091 353:0.262673 354:0.305164 355:0.339535 356:0.448598 357:0.542056 358:0.539171 359:0.637209 360:0.607143 361:0.330049 362:0.346341 363:0.288889 364:0.37037 365:0.277778 366:0.290323 367:0.633028 368:0.681818 369:0.72549 370:0.671498 371:0.475556 372:0.392157 373:0.269036 374:0.186275 375:-0.193717 376:-0.140097 377:-0.21659 378:-0.438424 379:-0.4 380:-0.0985915 381:-0.272727 382:-0.0967742 383:0.0232558 384:0.192488 385:0.245283 386:0.333333 387:0.457944 388:0.581395 389:0.564444 390:0.560538 391:0.393365 392:0.31068 393:0.351111 394:0.410138 395:0.443902 396:0.445455 397:0.609302 398:0.547511 399:0.439614 400:0.237209 401:-0.0234742 402:0.0214592 403:-0.247312 404:-0.127451 405:-0.431472 406:0.463918 407:-0.212963 408:-0.2 409:-0.398058 410:0.285024 411:0.00970874 412:-0.196172 413:-0.144144 414:-0.0571429 415:0.211538 416:0.330233 417:0.438914 418:0.490566 419:0.550459 420:0.554545 421:0.388128 422:0.352113 423:0.441441 424:0.408696 425:0.521127 426:0.544643 427:0.536364 428:0.359223 429:-0.0970874 430:-0.227907 431:0.0985915 432:0.550239 433:0.166667 434:-0.375661 435:-0.32973 436:-0.546392 437:-0.183246 438:-0.138614 439:-0.392857 440:0.364583 441:0.327189 442:0.0149254 443:-0.327354 444:0.0412371 445:0.0552764 446:0.492537 447:0.435407 448:0.367521 449:0.514563 450:0.541284 451:0.386667 452:0.386792 453:0.447964 454:0.444934 455:0.402715 456:0.538462 457:0.267606 458:0.0686275 459:-0.339806 460:0.0742358 461:0.52381 462:0.53211 463:0.625571 464:0.221053 465:-0.166667 466:-0.273632 467:-0.104478 468:-0.273543 469:-0.0291262 470:0.469388 471:0.264574 472:0.0857143 473:-0.037037 474:0.0653266 475:-0.233831 476:0.27451 477:0.381643 478:0.190909 479:0.401869 480:0.53211 481:0.415525 482:0.457143 483:0.461187 484:0.598086 485:0.572093 486:0.459459 487:0.23301 488:0.145631 489:0.167464 490:0.0128755 491:0.172414 492:0.972222 493:0.962791 494:1 495:-0.127962 496:-0.0824742 497:-0.044335 498:-0.0926829 499:0.149533 500:0.207547 501:0.0776699 502:0.175926 503:-0.0803571 504:-0.0403587 505:-0.174312 506:0.205882 507:0.293532 508:0.148148 509:0.327103 510:0.459716 511:0.364055 512:0.5 513:0.521127 514:0.550661 515:0.699029 516:0.486239 517:0.221154 518:0.261084 519:0.445545 520:0.171806 521:-0.124378 522:0.12844 523:0.760417 524:0.557895 525:0.232323 526:0.120879 527:0.169643 528:0.276596 529:0.140097 530:0.306533 531:0.145455 532:0.175879 533:0.326316 534:0.251185 535:0.0679612 536:0.151515 537:0.127273 538:0.237624 539:0.453659 540:0.490196 541:0.374408 542:0.5 543:0.470852 544:0.533632 545:0.682243 546:0.42723 547:0.235023 548:0.273585 549:0.460317 550:0.388646 551:0.15942 552:0.162562 553:0.268041 554:0.28125 555:0.165829 556:0.256831 557:0.417582 558:0.364103 559:0.261084 560:0.212121 561:0.247423 562:0.312169 563:0.391304 564:0.173709 565:0.0462963 566:0.104762 567:0.145631 568:0.304762 569:0.417085 570:0.477387 571:0.45098 572:0.411255 573:0.458716 574:0.502304 575:0.541463 576:0.285068 577:0.439252 578:0.473171 579:0.419048 580:0.656863 581:0.680851 582:0.478261 583:0.436893 584:0.472637 585:0.450777 586:0.383838 587:0.394231 588:0.313131 589:0.294118 590:0.396825 591:0.205742 592:0.306931 593:0.311828 594:0.133641 595:0.133641 596:0.161905 597:0.205882 598:0.306306 599:0.371429 600:0.448276 601:0.410138 602:0.563981 603:0.511521 604:0.431111 605:0.457286 606:0.400966 607:0.478261 608:0.485437 609:0.569378 610:0.70297 611:0.862434 612:0.792079 613:0.534247 614:0.556604 615:0.541667 616:0.462687 617:0.44898 618:0.398907 619:0.430108 620:0.348066 621:0.309645 622:0.179245 623:0.227513 624:0.268293 625:0.23301 626:0.247619 627:0.31401 628:0.339286 629:0.364929 630:0.404651 631:0.475248 632:0.514563 633:0.5 634:0.44186 635:0.482927 636:0.470588 637:0.497537 638:0.368889 639:0.557692 640:0.582938 641:0.805825 642:0.751295 643:0.590476 644:0.607656 645:0.552239 646:0.48 647:0.437186 648:0.407821 649:0.433155 650:0.365591 651:0.376344 652:0.344262 653:0.302564 654:0.336585 655:0.41 656:0.359606 657:0.345972 658:0.43662 659:0.47907 660:0.504505 661:0.376147 662:0.5 663:0.548387 664:0.490196 665:0.459184 666:0.472081 667:0.37963 668:0.511737 669:0.574257 670:0.546798 671:0.647619 672:0.606383 673:0.502488 674:0.547739 675:0.521531 676:0.476923 677:0.414894 678:0.46 679:0.409326 680:0.451613 681:0.382979 682:0.364583 683:0.350785 684:0.446602 685:0.446602 686:0.502488 687:0.527094 688:0.53 689:0.564815 690:0.55122 691:0.451777 692:0.483254 693:0.516908 694:0.555556 695:0.460784 696:0.489796 697:0.459184 698:0.530516 699:0.541463 700:0.539216 701:0.529954 702:0.517949 703:0.558685 704:0.521531 705:0.497436 706:0.457286 707:0.515464 708:0.479167 709:0.479592 710:0.431579 711:0.428571 712:0.434555 713:0.460784 714:0.475248 715:0.471503 716:0.505051 717:0.528302 718:0.537688 719:0.525114 720:0.521951 721:0.395122 722:0.459716 723:0.549296 724:0.535354 725:0.443902 726:0.406699 727:0.427136 728:0.52381 729:0.532338 730:0.474747 731:0.511521 732:0.532995 733:0.512438 734:0.542289 735:0.507692 736:0.485149 737:0.487437 738:0.521277 739:0.425641 740:0.435897 741:0.492063 742:0.455497 743:0.507246 744:0.552083 745:0.492386 746:0.553398 747:0.55122 748:0.535545 749:0.588785 750:0.512195 751:0.451777 752:0.55 753:0.481481 754:0.45098 755:0.5 756:0.517588 757:0.470588 758:0.47619 759:0.527638 760:0.524272 761:0.483254 762:0.490566 763:0.56 764:0.60804 765:0.520408 766:0.487437 767:0.441624 768:0.472081 769:0.442105 770:0.42132 771:0.534392 772:0.507853 773:0.55665 774:0.563452 775:0.545455 776:0.564815 777:0.574879 778:0.521951 779:0.523364 780:0.579439 781:0.479592 782:0.49505 783:0.542289 784:0.383886 785:0.56 786:0.516279 787:0.458128 788:0.525581 789:0.568627 790:0.532338 791:0.564815 792:0.463636 793:0.497537 794:0.520833 795:0.484536 796:0.414141 797:0.407035 798:0.453608 799:0.409326 800:0.424242 801:0.5 802:0.536082 803:0.546392 804:0.583756 805:0.517241 806:0.570776 807:0.633663 808:0.572816 809:0.563981 810:0.574074 811:0.469767 812:0.535354 813:0.5 814:0.464789 815:0.607656 816:0.479452 817:0.528302 818:0.559809 819:0.553488 820:0.58 821:0.538462 822:0.504425 823:0.443902 824:0.510204 825:0.555556 826:0.519608 827:0.441624 828:0.463918 829:0.523316 830:0.515789 831:0.56701 832:0.593909 833:0.57732 834:0.653465 835:0.628141 836:0.59434 837:0.507246 838:0.450237 839:0.413333 840:0.480176 841:0.459716 842:0.50495 843:0.457014 844:0.533981 845:0.615385 846:0.582524 847:0.543379 848:0.592417 849:0.613208 850:0.54 851:0.527094 852:0.490909 853:0.429952 854:0.554404 855:0.542056 856:0.533679 857:0.575758 858:0.552239 859:0.554455 860:0.544041 861:0.591623 862:0.58794 863:0.634518 864:0.692308 865:0.718447 866:0.548077 867:0.393365 868:0.396226 869:0.373272 870:0.468468 871:0.418719 872:0.464789 873:0.619048 874:0.567308 875:0.592233 876:0.447368 877:0.621359 878:0.603774 879:0.598131 880:0.538462 881:0.57 882:0.511521 883:0.527273 884:0.610256 885:0.596244 886:0.522388 887:0.57 888:0.540816 889:0.613861 890:0.525253 891:0.565217 892:0.613861 893:0.647059 894:0.756345 895:0.699029 896:0.423077 897:0.346535 898:0.346341 899:0.327273 900:0.37069 
0.3910131024131024 1:-0.141463 2:0.00465116 3:-0.0790698 4:-0.27619 5:-0.39 6:-0.447005 7:-0.477387 8:-0.507389 9:-0.751244 10:0.01 11:0.385366 12:0.482587 13:0.562189 14:0.552381 15:0.625616 16:0.660194 17:0.61194 18:0.638191 19:0.686275 20:0.69697 21:0.717073 22:0.721393 23:0.764706 24:0.742574 25:0.751244 26:0.763547 27:0.79 28:0.813725 29:0.769231 30:0.761062 31:0.0186916 32:-0.0288462 33:-0.12844 34:-0.298578 35:-0.533981 36:-0.462264 37:-0.563981 38:-0.524752 39:-0.668342 40:0.131313 41:0.407035 42:0.507538 43:0.563452 44:0.577889 45:0.592233 46:0.586207 47:0.638191 48:0.601942 49:0.60396 50:0.703349 51:0.678392 52:0.756098 53:0.737864 54:0.707317 55:0.74 56:0.747475 57:0.805825 58:0.832512 59:0.827751 60:0.795122 61:0.078341 62:-0.0900474 63:-0.157407 64:-0.373134 65:-0.509434 66:-0.54902 67:-0.525253 68:-0.668203 69:-0.507538 70:0.22449 71:0.435644 72:0.452736 73:0.418719 74:0.480392 75:0.519608 76:0.42439 77:0.534653 78:0.464646 79:0.58 80:0.613861 81:0.655172 82:0.725888 83:0.701493 84:0.668293 85:0.69 86:0.762376 87:0.785366 88:0.698113 89:0.79 90:0.815534 91:0.0140845 92:-0.110048 93:-0.294118 94:-0.383886 95:-0.474138 96:-0.538462 97:-0.447236 98:-0.722488 99:-0.425743 100:0.227723 101:0.273632 102:0.254902 103:0.275362 104:0.359223 105:0.346734 106:0.273632 107:0.366834 108:0.26 109:0.271845 110:0.411168 111:0.447619 112:0.577889 113:0.548077 114:0.51 115:0.509259 116:0.712871 117:0.78 118:0.81 119:0.80198 120:0.812808 121:0.00934579 122:-0.162562 123:-0.372549 124:-0.371429 125:-0.455446 126:-0.495146 127:-0.461538 128:-0.602041 129:-0.306931 130:-0.0990099 131:-0.04 132:0.0351759 133:-0.105769 134:-0.135922 135:-0.0882353 136:-0.11 137:-0.147208 138:-0.209756 139:-0.142857 140:-0.117647 141:0.120773 142:0.247619 143:0.567308 144:0.176471 145:0.404878 146:0.59799 147:0.767677 148:0.690141 149:0.772277 150:0.771144 151:-0.045045 152:-0.326733 153:-0.288462 154:-0.441176 155:-0.413462 156:-0.455446 157:-0.37799 158:-0.514851 159:-0.442786 160:-0.329949 161:-0.376884 162:-0.173469 163:-0.290323 164:-0.5311 165:-0.346734 166:-0.42268 167:-0.428571 168:-0.532995 169:-0.363636 170:-0.475728 171:-0.311005 172:-0.029703 173:0.246377 174:0.047619 175:0.134615 176:0.570732 177:0.696078 178:0.745283 179:0.728155 180:0.75 181:-0.169811 182:-0.307692 183:-0.349282 184:-0.442308 185:-0.475248 186:-0.418719 187:-0.569231 188:-0.435644 189:-0.471154 190:-0.65445 191:-0.697917 192:-0.603448 193:-0.663551 194:-0.728643 195:-0.783784 196:-0.661538 197:-0.427083 198:-0.494845 199:-0.492228 200:-0.572139 201:-0.412935 202:-0.281553 203:-0.0344828 204:-0.0693069 205:0.0990099 206:0.397129 207:0.563981 208:0.646512 209:0.624454 210:0.76 211:-0.110048 212:-0.342222 213:-0.409524 214:-0.658768 215:-0.438424 216:-0.497487 217:-0.517588 218:-0.453608 219:-0.442308 220:-0.705263 221:-0.572917 222:-0.437186 223:-0.518325 224:-0.552083 225:-0.423423 226:-0.221675 227:-0.113402 228:-0.214286 229:-0.417476 230:-0.699029 231:-0.73991 232:-0.327103 233:-0.284314 234:0.0192308 235:0.130435 236:0.19403 237:0.592233 238:0.627907 239:0.601852 240:0.675926 241:-0.11 242:-0.413462 243:-0.569378 244:-0.733333 245:-0.42723 246:-0.507109 247:-0.436893 248:-0.502646 249:-0.39604 250:-0.233161 251:-0.162304 252:-0.0784314 253:-0.0714286 254:-0.0140845 255:0.168421 256:0.368932 257:0.45 258:0.517588 259:0.514563 260:0.572816 261:0.121076 262:-0.504673 263:-0.308411 264:-0.173709 265:0.174757 266:0.258537 267:0.502488 268:0.64532 269:0.581818 270:0.725118 271:-0.0926829 272:-0.5 273:-0.741627 274:-0.559809 275:-0.2 276:-0.284404 277:-0.383178 278:-0.552083 279:-0.365385 280:-0.0990991 281:-0.0536585 282:0.0526316 283:0.134615 284:0.166667 285:0.271845 286:0.205742 287:0.157895 288:0.0925926 289:0.0634146 290:0.046729 291:0.115207 292:-0.0875576 293:0.00917431 294:-0.0380952 295:-0.0754717 296:0.0761905 297:0.326923 298:0.528302 299:0.643564 300:0.617647 301:-0.408072 302:-0.617225 303:-0.650224 304:-0.415094 305:-0.0648148 306:-0.382488 307:-0.502262 308:-0.453704 309:-0.270936 310:0.0377358 311:0.169082 312:0.20603 313:0.320197 314:0.307317 315:0.404878 316:0.31068 317:0.330233 318:0.194175 319:0.045045 320:-0.00877193 321:0.047619 322:-0.0275229 323:-0.042654 324:-0.529954 325:0.114155 326:0.520737 327:0.0331754 328:0.353448 329:0.617225 330:0.488789 331:-0.436893 332:-0.683168 333:-0.517857 334:-0.266055 335:-0.0747664 336:-0.5 337:-0.488584 338:-0.352941 339:-0.0970874 340:0.0139535 341:0.222222 342:0.296804 343:0.58 344:0.558824 345:0.603604 346:0.55157 347:0.62037 348:0.52657 349:0.506849 350:0.378995 351:0.279279 352:0.118182 353:-0.124424 354:-0.239437 355:-0.423256 356:0.345794 357:0.224299 358:0.235023 359:0.553488 360:0.526786 361:-0.507389 362:-0.609756 363:-0.6 364:-0.0185185 365:-0.203704 366:-0.576037 367:-0.513761 368:-0.272727 369:0.0882353 370:0.275362 371:0.395556 372:0.539216 373:0.604061 374:0.754902 375:0.748691 376:0.642512 377:0.603687 378:0.536946 379:0.66 380:0.737089 381:0.518182 382:0.502304 383:0.190698 384:-0.0422535 385:-0.122642 386:-0.314815 387:0.17757 388:0.255814 389:0.537778 390:0.542601 391:-0.336493 392:-0.427184 393:-0.688889 394:0.115207 395:-0.160976 396:-0.554545 397:-0.469767 398:-0.18552 399:0.140097 400:0.413953 401:0.521127 402:0.356223 403:0.215054 404:0.156863 405:0.0152284 406:-0.175258 407:-0.0925926 408:-0.244444 409:-0.165049 410:-0.0338164 411:0.038835 412:0.157895 413:0.252252 414:0.228571 415:0.00961538 416:-0.144186 417:-0.339367 418:-0.207547 419:-0.0917431 420:-0.0909091 421:-0.561644 422:-0.42723 423:-0.405405 424:0.0173913 425:-0.117371 426:-0.464286 427:-0.345455 429:0.203883 430:0.302326 431:0.0985915 432:-0.177033 433:-0.385417 434:-0.174603 435:0.0162162 436:0.226804 437:0.246073 438:-0.227723 439:-0.633929 440:-0.583333 441:-0.290323 442:-0.442786 443:-0.35426 444:-0.14433 445:-0.0753769 446:-0.0348259 447:-0.339713 448:-0.145299 449:-0.0485437 450:0.0550459 451:-0.404444 452:-0.462264 453:-0.493213 454:-0.0484581 455:-0.18552 456:-0.303167 457:-0.230047 458:0.156863 459:0.31068 460:0.0567686 461:-0.259259 462:-0.605505 463:-0.333333 464:0.136842 465:0.458333 466:0.60199 467:0.60199 468:-0.237668 469:-0.213592 470:-0.367347 471:0.381166 472:-0.67619 473:-0.601852 474:-0.417085 475:-0.283582 476:-0.382353 477:-0.0338164 478:-0.0818182 479:0.495327 480:0.651376 481:-0.296804 482:-0.561905 483:-0.607306 484:0.0526316 485:-0.106977 486:-0.144144 487:-0.106796 488:0.281553 489:0.291866 490:-0.175966 491:-0.399015 492:-0.324074 493:-0.116279 494:0.253456 495:0.535545 496:0.762887 497:0.714286 498:-0.287805 499:-0.252336 500:-0.575472 501:-0.524272 502:-0.472222 503:-0.526786 504:-0.542601 505:-0.449541 506:-0.166667 507:-0.502488 508:0.203704 509:0.757009 510:0.791469 511:-0.631336 512:-0.518868 513:-0.323944 514:-0.0837004 515:0.0194175 516:0.119266 517:0.0673077 518:0.477833 519:0.277228 520:-0.251101 521:-0.144279 522:0.155963 523:0.40625 524:0.4 525:0.535354 526:0.637363 527:0.642857 528:0.170213 529:-0.294686 530:-0.0954774 531:-0.263636 532:-0.256281 533:-0.294737 534:-0.137441 535:0.0582524 536:-0.272727 537:-0.272727 538:0.623762 539:0.853659 540:0.872549 541:-0.829384 542:-0.268519 543:-0.183857 544:-0.0672646 545:0.261682 546:0.286385 547:0.207373 548:0.103774 549:-0.0582011 550:-0.0917031 551:-0.178744 552:0.231527 553:0.556701 554:0.583333 555:0.407035 556:0.672131 557:0.824176 558:0.630769 559:0.369458 560:0.40404 561:0.43299 562:0.365079 563:0.315217 564:0.126761 565:0.0555556 566:-0.352381 567:0.378641 568:0.790476 569:0.859296 570:0.829146 571:-0.941176 572:-0.177489 573:-0.100917 574:-0.0138249 575:0.37561 576:0.339367 577:0.439252 578:0.0439024 579:0.00952381 580:0.294118 581:0.0425532 582:0.140097 583:0.504854 584:0.621891 585:0.668394 586:0.575758 587:0.586538 588:0.555556 589:0.572193 590:0.57672 591:0.425837 592:0.50495 593:0.548387 594:0.576037 595:0.0230415 597:0.705882 598:0.72973 599:0.752381 600:0.783251 601:-0.889401 602:-0.0521327 603:0.078341 604:0.04 605:0.407035 606:0.478261 607:0.381643 608:0.184466 609:0.186603 610:0.425743 611:0.365079 612:0.277228 613:0.39726 614:0.688679 615:0.760417 616:0.711443 617:0.653061 618:0.606557 619:0.591398 620:0.425414 621:0.28934 622:0.339623 623:0.544974 624:0.746341 625:0.0679612 626:0.466667 627:0.710145 628:0.678571 629:0.677725 630:0.683721 631:-0.90099 632:-0.203883 633:0.214286 634:0.162791 635:0.531707 636:0.598039 637:0.448276 638:0.262222 639:0.182692 640:0.2891 641:0.650485 642:0.668394 643:0.580952 644:0.665072 645:0.651741 646:0.61 647:0.487437 648:0.47486 649:0.550802 650:0.462366 651:0.483871 652:0.57377 653:0.661538 654:0.570732 655:0.3 656:0.655172 657:0.696682 658:0.784038 659:0.813953 660:0.738739 661:-0.724771 662:-0.433962 663:0.364055 664:0.205882 665:0.479592 666:0.64467 667:0.518519 668:0.42723 669:0.19802 670:0.399015 671:0.609524 672:0.553191 673:0.562189 674:0.60804 675:0.645933 676:0.589744 677:0.531915 678:0.5 679:0.419689 680:0.505376 681:0.531915 682:0.614583 683:0.696335 684:0.281553 685:0.524272 686:0.820896 687:0.881773 688:0.86 689:0.814815 690:0.795122 691:-0.370558 692:-0.799043 693:0.333333 694:0.449275 695:0.45098 696:0.622449 697:0.632653 698:0.42723 699:0.239024 700:0.294118 701:0.410138 702:0.394872 703:0.42723 704:0.38756 705:0.45641 706:0.527638 707:0.556701 708:0.59375 709:0.612245 710:0.663158 711:0.619048 712:0.759162 713:0.627451 714:0.168317 715:0.668394 716:0.808081 717:0.858491 718:0.869347 719:0.762557 720:0.658537 721:-0.278049 722:-0.876777 723:0.0140845 724:0.464646 725:0.326829 726:0.464115 727:0.557789 728:0.371429 729:0.323383 730:0.545455 731:0.686636 732:0.807107 733:0.771144 734:0.830846 735:0.764103 736:0.722772 737:0.738693 738:0.797872 739:0.74359 740:0.784615 741:0.89418 742:0.937173 743:0.371981 744:0.375 745:0.756345 746:0.883495 747:0.892683 748:0.819905 749:0.813084 750:0.658537 751:-0.329949 752:-0.57 753:-0.703704 754:0.0686275 755:0.372549 756:0.517588 757:0.401961 758:0.428571 759:0.658291 760:0.796117 761:0.808612 762:0.773585 763:0.88 764:0.939698 765:0.908163 766:0.869347 767:0.847716 768:0.888325 769:0.863158 770:0.807107 771:0.925926 772:0.727749 773:0.349754 774:0.573604 775:0.848485 776:0.888889 777:0.845411 778:0.795122 779:0.747664 780:0.682243 781:-0.367347 782:-0.514851 783:-0.751244 784:-0.725118 785:0.23 786:0.423256 787:0.251232 788:0.572093 789:0.794118 790:0.880597 791:0.851852 792:0.781818 793:0.812808 794:0.916667 795:0.979381 796:0.89899 797:0.849246 798:0.876289 799:0.813472 800:0.777778 801:0.645833 802:0.360825 803:0.42268 804:0.715736 805:0.783251 806:0.844749 807:0.851485 808:0.825243 809:0.706161 810:0.592593 811:-0.339535 812:-0.444444 813:-0.896226 814:-0.295775 815:0.129187 816:-0.0136986 817:-0.179245 818:0.129187 819:0.516279 820:0.81 821:0.826923 822:0.752212 823:0.756098 824:0.826531 825:0.884058 826:0.843137 827:0.807107 828:0.773196 829:0.751295 830:0.431579 831:-0.134021 832:0.269036 833:0.56701 834:0.752475 835:0.869347 836:0.811321 837:0.729469 838:0.725118 839:0.528889 840:0.524229 841:-0.450237 842:-0.544554 843:-0.873303 844:-0.145631 845:0.25 846:0.0873786 847:-0.269406 848:-0.014218 849:-0.00943396 850:-0.15 851:-0.142857 852:0.0545455 853:0.120773 854:0.274611 855:0.336449 856:0.305699 857:0.272727 858:0.134328 859:-0.00990099 860:-0.181347 861:-0.0052356 862:0.487437 863:0.593909 864:0.825641 865:0.873786 866:0.817308 867:0.744076 868:0.716981 869:0.59447 870:0.603604 871:-0.605911 872:-0.596244 873:-0.752381 874:-0.0673077 875:0.203883 876:-0.0350877 877:-0.281553 878:0.150943 879:0.383178 880:0.134615 881:-0.18 882:-0.18894 883:-0.209091 884:-0.230769 885:-0.13615 886:-0.20398 887:-0.09 888:-0.0714286 889:0.108911 890:0.30303 891:0.371981 892:0.465347 893:0.666667 894:0.817259 895:0.912621 896:0.846154 897:0.752475 898:0.717073 899:0.636364 900:0.551724 
1.706242718662213 1:-0.2 2:-0.0883721 3:-0.0325581 4:-0.0761905 5:-0.04 6:0.105991 7:0.00502513 8:0.044335 9:0.0447761 10:0.05 11:0.0926829 12:0.0746269 13:0.104478 14:0.12381 15:0.152709 16:0.203883 17:0.134328 18:0.19598 19:0.294118 20:0.353535 21:0.336585 22:0.492537 23:0.460784 24:0.485149 25:0.393035 26:0.438424 27:0.44 28:0.362745 29:0.336538 30:0.433628 31:-0.046729 32:-0.0865385 33:0.0183486 34:-0.0521327 35:2.22045e-016 36:0.0660377 37:-0.0331754 38:-0.029703 39:0.0251256 40:-0.040404 41:-0.0351759 42:-0.0251256 43:0.00507614 44:0.0251256 45:0.0776699 46:0.142857 47:0.115578 48:0.15534 49:0.049505 50:0.22488 51:0.20603 52:0.170732 53:0.271845 54:0.229268 55:0.21 56:0.282828 57:0.320388 58:0.359606 59:0.358852 60:0.346341 61:-0.0875576 62:-0.127962 63:0.0277778 64:-0.00497512 65:0.0471698 66:0.107843 67:-0.0707071 68:-0.24424 69:-0.0552764 70:-0.0816327 71:-0.108911 72:-0.0845771 73:-0.0837438 74:-0.0588235 75:2.22045e-016 76:0.131707 77:-0.039604 78:-0.010101 79:-0.03 80:0.00990099 81:-0.0246305 82:-0.0558376 83:-0.00497512 84:-0.0439024 85:-0.04 86:0.019802 87:0.112195 88:0.0943396 89:0.23 90:0.23301 91:-0.164319 92:-0.167464 93:-0.0497738 94:0.042654 95:2.22045e-016 96:0.0865385 97:-0.20603 98:-0.244019 99:-0.227723 100:-0.178218 101:-0.18408 102:-0.196078 103:-0.207729 104:-0.194175 105:-0.346734 106:-0.233831 107:-0.407035 108:-0.32 109:-0.38835 110:-0.299492 111:-0.352381 112:-0.276382 113:-0.307692 114:-0.41 115:-0.351852 116:-0.178218 117:-0.11 118:0.03 119:0.0990099 120:0.103448 121:-0.149533 122:-0.211823 123:-0.0588235 124:0.0285714 125:0.00990099 126:-0.15534 127:-0.269231 128:-0.306122 129:-0.247525 130:-0.108911 131:-0.23 132:-0.316583 133:-0.317308 134:-0.320388 135:-0.372549 136:-0.54 137:-0.532995 138:-0.502439 139:-0.546798 140:-0.529412 141:-0.555556 142:-0.390476 143:-0.480769 144:-0.470588 145:-0.453659 146:-0.386935 147:-0.333333 148:-0.239437 149:-0.049505 150:-0.00497512 151:-0.0810811 152:-0.247525 153:-0.0576923 154:-0.0490196 155:-0.144231 156:-0.287129 157:-0.330144 158:-0.188119 159:-0.233831 160:-0.329949 161:-0.296482 162:-0.336735 163:-0.364055 164:-0.37799 165:-0.336683 166:-0.453608 167:-0.510204 168:-0.563452 169:-0.515152 170:-0.504854 171:-0.588517 172:-0.485149 173:-0.536232 174:-0.580952 175:-0.548077 176:-0.463415 177:-0.421569 178:-0.245283 179:-0.203883 180:-0.06 181:-0.169811 182:-0.163462 183:-0.0143541 184:-0.105769 185:-0.29703 186:-0.172414 187:-0.220513 188:-0.0594059 189:-0.173077 190:-0.151832 191:-0.197917 192:-0.275862 193:-0.317757 194:-0.376884 195:-0.387387 196:-0.34359 197:-0.489583 198:-0.505155 199:-0.554404 200:-0.522388 201:-0.542289 202:-0.524272 203:-0.536946 204:-0.544554 205:-0.475248 206:-0.464115 207:-0.507109 208:-0.348837 209:-0.292576 210:-0.18 211:-0.22488 212:-0.182222 213:-0.0380952 214:-0.308057 215:-0.251232 216:-0.0653266 217:-0.0552764 218:0.0927835 219:0.0673077 220:-0.126316 221:-0.0729167 222:-0.0653266 223:-0.0575916 224:-0.114583 225:-0.243243 226:-0.280788 227:-0.247423 228:-0.346939 229:-0.446602 230:-0.475728 231:-0.578475 232:-0.439252 233:-0.509804 234:-0.490385 235:-0.478261 236:-0.412935 237:-0.300971 238:-0.348837 239:-0.324074 240:-0.175926 241:-0.27 242:-0.173077 243:-0.138756 244:-0.476923 245:-0.211268 246:-0.0236967 247:0.0679612 248:0.0687831 249:0.0594059 250:-0.00518135 251:-0.026178 252:-0.0686275 253:-0.0714286 254:-0.0610329 255:-0.0105263 256:0.0776699 257:-0.1 258:-0.0653266 259:-0.174757 260:-0.203883 261:-0.309417 262:-0.411215 263:-0.373832 264:-0.41784 265:-0.485437 266:-0.42439 267:-0.383085 268:-0.29064 269:-0.227273 270:-0.127962 271:-0.131707 272:-0.232143 273:-0.282297 274:-0.291866 275:-0.0190476 276:-0.0366972 277:0.149533 278:0.104167 279:0.0576923 280:0.036036 281:0.0341463 282:-0.0877193 283:0.0288462 284:0.0185185 285:-0.0679612 286:0.0143541 287:0.0143541 288:-0.00925926 289:-0.0341463 290:-0.0841121 291:-0.142857 292:-0.21659 293:-0.293578 294:-0.380952 295:-0.481132 296:-0.447619 297:-0.423077 298:-0.292453 299:-0.108911 300:-0.0686275 301:-0.2287 302:-0.167464 303:-0.363229 304:-0.264151 305:-0.0185185 306:-0.105991 307:0.0950226 308:0.0185185 309:0.044335 310:0.0660377 311:0.178744 312:0.115578 313:0.0935961 314:-0.00487805 315:-0.102439 316:-0.116505 317:-0.0883721 318:-0.23301 319:-0.288288 320:-0.368421 321:-0.333333 322:-0.385321 323:-0.336493 324:-0.327189 325:-0.333333 326:-0.327189 327:-0.49763 328:-0.301724 329:-0.0717703 330:-0.058296 331:-0.15534 332:-0.217822 333:-0.25 334:-0.256881 335:-0.0280374 336:-0.0686275 337:0.0684932 338:0.117647 339:0.116505 340:0.0697674 341:0.166667 342:0.0228311 343:-0.1 344:-0.333333 345:-0.27027 346:-0.327354 347:-0.157407 348:-0.2657 349:-0.278539 350:-0.360731 351:-0.531532 352:-0.672727 353:-0.658986 354:-0.474178 355:-0.330233 356:-0.308411 357:-0.35514 358:-0.391705 359:-0.0790698 360:0.00892857 361:-0.133005 362:-0.180488 363:-0.137778 364:-0.12963 365:-0.194444 366:-0.124424 367:0.0550459 368:0.118182 369:0.186275 370:0.178744 371:0.00444444 372:-0.294118 373:-0.258883 374:-0.0980392 375:-0.0052356 376:-0.0144928 377:0.105991 378:-0.0246305 379:-0.08 380:-0.0140845 381:-0.336364 382:-0.373272 383:-0.553488 384:-0.680751 385:-0.556604 386:-0.435185 387:-0.383178 388:-0.35814 389:-0.164444 390:-0.0044843 391:-0.0995261 392:-0.174757 393:-0.182222 394:-0.105991 395:-0.180488 396:-0.1 397:0.0232558 398:0.00452489 399:-0.0724638 400:-0.265116 401:-0.126761 402:-0.0472103 403:0.0645161 404:0.117647 405:-0.035533 406:-0.247423 407:-0.361111 408:-0.475556 409:-0.495146 410:-0.478261 411:-0.543689 412:-0.464115 413:-0.45045 414:-0.495238 415:-0.451923 416:-0.618605 417:-0.529412 418:-0.377358 419:-0.192661 420:-0.0181818 421:-0.114155 422:-0.173709 423:-0.135135 424:-0.130435 425:-0.15493 426:-0.0446429 427:0.0181818 428:-0.0970874 429:-0.563107 430:-0.311628 431:-0.0234742 432:0.148325 433:0.0104167 434:-0.407407 435:-0.610811 436:-0.814433 437:-0.895288 438:0.178218 439:-1 440:-0.958333 441:-0.658986 442:-0.771144 443:-0.784753 444:-0.618557 445:-0.467337 446:-0.20398 447:-0.397129 448:-0.264957 449:-0.203883 450:-0.0183486 451:-0.146667 452:-0.122642 453:-0.0678733 454:-0.189427 455:-0.18552 456:-0.0950226 457:-0.0704225 458:-0.558824 459:-0.378641 460:0.0218341 461:0.0899471 462:-0.275229 463:-0.652968 464:-0.768421 465:-0.260417 466:-1 467:-0.552239 468:-0.659193 469:-0.864078 470:-1 471:-0.29148 472:-0.428571 473:-0.851852 474:-0.758794 475:-1 476:-0.617647 477:-0.0531401 478:-0.109091 479:-0.196262 480:0.0458716 481:-0.196347 482:-0.0571429 483:-0.0776256 484:-0.0239234 485:-0.125581 486:-0.036036 487:-0.31068 488:-0.291262 489:-0.062201 490:-0.0987124 491:-0.477833 492:-0.944444 493:-0.823256 494:-0.253456 495:-0.308057 496:-0.896907 497:-0.73399 498:-0.892683 499:-0.71028 500:-1 501:0.0291262 502:-0.0555556 503:-0.205357 504:0.847534 505:-0.633028 506:-0.627451 507:-0.0945274 508:-0.111111 509:-0.121495 510:0.0521327 511:-0.24424 512:-0.0283019 513:-0.00469484 514:-0.101322 515:-0.174757 516:-0.0733945 517:-0.192308 518:-0.123153 519:-0.19802 520:-0.559471 521:-0.880597 522:-1 523:-0.03125 524:0.410526 525:-0.333333 526:-0.912088 527:-0.75 528:-0.808511 529:-0.700483 530:-0.61809 531:-0.154545 532:-0.366834 533:-0.4 534:0.165877 535:-0.300971 536:-0.0909091 537:-0.136364 538:-0.0990099 539:0.00487805 540:0.137255 541:-0.279621 542:-0.0185185 543:-0.0313901 544:-0.058296 545:-0.0841121 546:-0.258216 547:-0.290323 548:-0.415094 549:-0.724868 550:-0.746725 551:-0.748792 552:-0.871921 553:-0.226804 554:0.09375 555:0.125628 556:-0.497268 557:-0.571429 558:-0.282051 559:0.0935961 560:0.0606061 561:0.154639 562:0.015873 563:-0.119565 564:-0.295775 565:-0.25 566:-0.12381 567:-0.0582524 568:-0.0380952 569:0.0552764 570:0.0351759 571:-0.235294 572:-0.108225 573:-0.0458716 574:-0.0138249 575:-0.0146341 576:-0.357466 577:-0.0373832 578:-0.180488 579:-0.419048 580:-0.254902 581:-0.170213 582:0.0144928 583:-0.165049 584:-0.19403 585:-0.233161 586:-0.272727 587:-0.211538 588:-0.020202 589:-0.112299 590:-0.026455 591:-0.38756 592:-0.217822 593:-0.215054 594:-0.235023 595:-0.133641 596:-0.152381 597:-0.117647 598:0.0630631 599:0.0285714 600:0.00492611 601:-0.262673 602:-0.0236967 603:0.0414747 604:0.0222222 605:-0.0552764 606:-0.0628019 607:0.0531401 608:-0.0291262 609:-0.0526316 610:-0.019802 611:0.0687831 612:0.19802 613:0.00456621 614:-0.0660377 615:-0.166667 616:-0.174129 617:-0.193878 618:-0.300546 619:-0.301075 620:-0.381215 621:-0.350254 622:-0.471698 623:-0.195767 624:0.0341463 625:-0.0679612 626:-0.0952381 627:0.0531401 628:0.0178571 629:-0.014218 630:-0.0139535 631:-0.247525 632:-0.0776699 633:0.0625 634:0.0139535 635:0.0243902 636:0.0196078 637:-0.00492611 638:-0.208889 639:-0.182692 640:-0.146919 641:0.106796 642:0.0880829 643:0.0285714 644:-0.0909091 645:-0.0746269 646:-0.18 647:-0.21608 648:-0.486034 649:-0.465241 650:-0.580645 651:-0.333333 652:-0.213115 653:0.0153846 654:0.121951 655:0.12 656:0.0246305 657:0.0616114 658:0.107981 659:0.0790698 660:0.036036 661:-0.256881 662:-0.0943396 663:0.0599078 665:0.0306122 666:0.137056 667:-0.0462963 668:0.0516432 669:-0.0990099 670:-0.162562 671:-0.12381 672:-0.255319 673:-0.174129 674:-0.316583 675:-0.244019 676:-0.497436 677:-0.531915 678:-0.52 679:-0.450777 680:-0.268817 681:-0.0531915 682:0.09375 683:0.0575916 684:0.15534 685:0.194175 686:0.164179 687:0.142857 688:0.07 689:0.148148 690:0.0536585 691:-0.208122 692:-0.110048 693:-0.0144928 694:0.0917874 695:0.0588235 696:0.132653 697:0.102041 698:0.14554 699:0.0634146 700:0.0294118 701:-0.0506912 702:-0.107692 703:-0.126761 704:-0.263158 705:-0.302564 706:-0.346734 707:-0.237113 708:-0.177083 709:-0.122449 710:-0.0105263 711:0.0687831 712:0.0994764 713:0.107843 714:0.118812 715:0.19171 716:0.111111 717:0.113208 718:0.0552764 719:0.123288 720:0.0829268 721:-0.229268 722:-0.127962 723:0.0234742 724:0.020202 725:0.0634146 726:0.062201 727:0.0954774 728:0.152381 729:0.144279 730:0.151515 731:0.078341 732:0.0862944 733:0.0149254 734:0.0646766 735:-0.0153846 736:-0.029703 737:-0.0351759 738:-0.0319149 739:0.025641 740:0.0769231 741:0.111111 742:0.0471204 743:0.120773 744:0.09375 745:0.137056 746:0.15534 747:0.0829268 748:0.0521327 749:0.168224 750:0.0926829 751:-0.19797 752:-0.09 753:-0.0833333 754:-1.11022e-016 755:0.0686275 756:0.175879 757:0.137255 758:0.152381 759:0.175879 760:0.165049 761:0.138756 762:0.0943396 763:0.12 764:0.165829 765:0.0306122 766:0.0854271 767:0.00507614 768:0.035533 769:0.0315789 770:0.0456853 771:0.0899471 772:0.0575916 773:0.1133 774:0.116751 775:0.111111 776:0.157407 777:0.120773 778:0.102439 779:0.102804 780:0.17757 781:-0.102041 782:-0.148515 783:-0.0447761 784:-0.0521327 785:0.08 786:0.162791 787:0.142857 788:0.181395 789:0.215686 790:0.18408 791:0.203704 792:0.0636364 793:0.044335 794:0.09375 795:0.0103093 796:0.0606061 797:0.0351759 798:-0.0206186 799:-0.0259067 800:0.040404 801:0.0729167 802:0.103093 803:0.0927835 804:0.177665 805:0.1133 806:0.205479 807:0.148515 808:0.165049 809:0.118483 810:0.138889 811:-0.134884 812:-0.0808081 813:2.22045e-016 814:-0.0234742 815:0.119617 816:0.13242 817:0.169811 818:0.215311 819:0.153488 820:0.2 821:0.163462 822:0.123894 823:0.00487805 824:0.0204082 825:0.0628019 826:0.0294118 827:0.0456853 828:0.0206186 829:0.0777202 830:0.0526316 831:0.113402 832:0.167513 833:0.175258 834:0.148515 835:0.19598 836:0.198113 837:0.111111 838:0.00473934 839:0.00444444 840:0.101322 841:-0.146919 842:-0.0792079 843:-0.040724 844:0.0291262 845:0.125 846:0.184466 847:0.205479 848:0.222749 849:0.169811 850:0.18 851:0.0837438 852:0.0636364 853:-0.0241546 854:-0.015544 855:0.0747664 856:0.0466321 857:0.10101 858:0.104478 859:0.168317 860:0.139896 861:0.120419 862:0.236181 863:0.19797 864:0.0153846 865:0.0291262 866:0.105769 867:0.0616114 868:-0.00943396 869:0.0414747 870:0.126126 871:-0.192118 872:-0.0798122 873:0.0571429 874:0.0480769 875:0.116505 876:0.0877193 877:0.23301 878:0.207547 879:0.196262 880:0.144231 881:0.09 882:0.0967742 883:0.118182 884:0.0564103 885:0.13615 886:0.134328 887:0.18 888:0.142857 889:0.207921 890:0.181818 891:0.198068 892:0.19802 893:0.0686275 894:-0.15736 895:0.0485437 896:0.125 897:0.029703 898:0.0341463 899:0.0545455 900:0.12069 
0.00738321756318702 1:-0.687805 2:0.283721 3:0.869767 4:0.780952 5:0.87 6:0.861751 7:0.829146 8:0.82266 9:0.810945 10:0.78 11:0.785366 12:0.771144 13:0.771144 14:0.704762 15:0.724138 16:0.76699 17:0.741294 18:0.688442 19:0.72549 20:0.676768 21:0.678049 22:0.661692 23:0.666667 24:0.613861 25:0.562189 26:0.546798 27:0.53 28:0.470588 29:0.480769 30:0.486726 31:-0.317757 32:0.692308 33:0.880734 34:0.800948 35:0.834951 36:0.839623 37:0.734597 38:0.792079 39:0.829146 40:0.777778 41:0.778894 42:0.788945 43:0.766497 44:0.768844 45:0.737864 46:0.783251 47:0.748744 48:0.737864 49:0.722772 50:0.741627 51:0.708543 52:0.736585 53:0.669903 54:0.668293 55:0.58 56:0.555556 57:0.582524 58:0.546798 59:0.5311 60:0.492683 61:0.21659 62:0.800948 63:0.861111 64:0.840796 65:0.867925 66:0.872549 67:0.828283 68:0.658986 69:0.788945 70:0.77551 71:0.762376 72:0.761194 73:0.753695 74:0.764706 75:0.754902 76:0.77561 77:0.782178 78:0.777778 79:0.77 80:0.772277 81:0.783251 82:0.756345 83:0.741294 84:0.756098 85:0.66 86:0.673267 87:0.560976 88:0.490566 89:0.55 90:0.553398 91:0.605634 92:0.779904 93:0.773756 94:0.848341 95:0.724138 96:0.865385 97:0.839196 98:0.69378 99:0.712871 100:0.752475 101:0.721393 102:0.72549 103:0.642512 104:0.747573 105:0.728643 106:0.771144 107:0.768844 108:0.77 109:0.825243 110:0.786802 111:0.790476 112:0.768844 113:0.740385 114:0.79 115:0.666667 116:0.693069 117:0.72 118:0.69 119:0.653465 120:0.635468 121:0.747664 122:0.763547 123:0.843137 124:0.857143 125:0.871287 126:0.84466 127:0.798077 128:0.755102 129:0.70297 130:0.722772 131:0.69 132:0.658291 133:0.557692 134:0.640777 135:0.627451 136:0.68 137:0.766497 138:0.765854 139:0.802956 140:0.784314 141:0.748792 142:0.790476 143:0.769231 144:0.77451 145:0.804878 146:0.748744 147:0.777778 148:0.680751 149:0.722772 150:0.671642 151:0.72973 152:0.772277 153:0.826923 154:0.823529 155:0.855769 156:0.821782 157:0.760766 158:0.742574 159:0.631841 160:0.614213 161:0.59799 162:0.44898 163:0.419355 164:0.464115 165:0.628141 166:0.649485 167:0.755102 168:0.786802 169:0.79798 170:0.757282 171:0.674641 172:0.792079 173:0.719807 174:0.619048 175:0.721154 176:0.756098 177:0.77451 178:0.726415 179:0.786408 180:0.75 181:0.726415 182:0.788462 183:0.856459 184:0.807692 185:0.821782 186:0.783251 187:0.702564 188:0.742574 189:0.471154 190:0.39267 191:0.177083 192:0.0862069 193:0.121495 194:0.376884 195:0.288288 196:0.528205 197:0.59375 198:0.659794 199:0.61658 200:0.58209 201:0.60199 202:0.543689 203:0.635468 204:0.564356 205:0.762376 206:0.684211 207:0.668246 208:0.655814 209:0.624454 210:0.81 211:0.741627 212:0.626667 213:0.8 214:0.791469 215:0.704433 216:0.758794 217:0.648241 218:0.206186 219:0.105769 220:-0.0631579 221:-0.177083 222:-0.0452261 223:-0.026178 224:0.0625 225:-0.027027 226:-0.0344828 227:0.0927835 228:0.142857 229:0.0485437 230:0.00970874 231:-0.0224215 232:0.252336 233:0.362745 234:0.384615 235:0.603865 236:0.671642 237:0.728155 238:0.674419 239:0.638889 240:0.703704 241:0.76 242:0.711538 243:0.837321 244:0.784615 245:0.690141 246:0.507109 247:0.0291262 248:-0.227513 249:-0.217822 250:-0.450777 251:-0.445026 252:-0.372549 253:-0.306122 254:-0.464789 255:-0.326316 256:-0.368932 257:-0.53 258:-0.386935 259:-0.543689 260:-0.359223 261:-0.381166 262:-0.261682 263:-0.0747664 264:0.276995 265:0.427184 266:0.64878 267:0.681592 268:0.714286 269:0.627273 270:0.744076 271:0.756098 272:0.625 273:0.741627 274:0.789474 275:0.419048 276:-0.146789 277:-0.158879 278:-0.28125 279:-0.326923 280:-0.324324 281:-0.55122 282:-0.561404 283:-0.528846 284:-0.62963 285:-0.708738 286:-0.674641 287:-0.69378 288:-0.638889 289:-0.609756 290:-0.598131 291:-0.456221 292:-0.529954 293:-0.330275 294:0.0380952 295:0.301887 296:0.533333 297:0.615385 298:0.660377 299:0.752475 300:0.705882 301:0.632287 302:0.770335 303:0.659193 304:0.377358 305:-0.12963 306:-0.308756 307:-0.257919 308:-0.5 309:-0.418719 310:-0.424528 311:-0.507246 312:-0.58794 313:-0.605911 314:-0.492683 315:-0.570732 316:-0.747573 317:-0.683721 318:-0.699029 319:-0.657658 320:-0.561404 321:-0.52381 322:-0.46789 323:-0.412322 324:-0.0230415 325:0.159817 326:0.529954 327:0.687204 328:0.603448 329:0.684211 330:0.569507 331:0.747573 332:0.851485 333:0.446429 334:-0.155963 335:-0.214953 336:-0.460784 337:-0.269406 338:-0.166667 339:-0.252427 340:-0.237209 341:-0.12037 342:-0.178082 343:-0.09 344:-0.0882353 345:0.045045 346:-0.0403587 347:-0.111111 348:-0.227053 349:-0.205479 350:-0.178082 351:-0.0900901 352:-0.118182 353:-0.105991 354:0.0234742 355:0.302326 356:0.598131 357:0.82243 358:0.677419 359:0.646512 360:0.669643 361:0.753695 362:0.853659 363:-0.0133333 364:-0.240741 365:-0.453704 366:-0.327189 367:0.275229 368:0.181818 369:0.372549 370:0.31401 371:0.377778 372:0.480392 373:0.553299 374:0.705882 375:0.748691 376:0.574879 377:0.437788 378:0.359606 379:0.34 380:0.286385 381:0.118182 382:0.271889 383:0.255814 384:0.361502 385:0.575472 386:0.666667 387:0.841121 388:0.730233 389:0.608889 390:0.775785 391:0.810427 392:0.679612 393:-0.12 394:-0.18894 395:-0.0634146 396:0.172727 397:0.525581 398:0.565611 399:0.642512 400:0.665116 401:0.7277 402:0.613734 403:0.741935 404:0.833333 405:0.736041 406:0.484536 407:0.388889 408:0.217778 409:0.359223 410:0.323671 411:0.31068 412:0.311005 413:0.297297 414:0.485714 415:0.769231 416:0.711628 417:0.719457 418:0.773585 419:0.642202 420:0.7 421:0.744292 422:0.549296 423:-0.135135 424:0.0608696 425:0.305164 426:0.607143 427:0.736364 428:0.815534 429:0.76699 430:0.581395 431:0.596244 432:0.559809 433:0.583333 434:0.883598 435:0.491892 436:0.175258 437:0.0994764 438:0.0891089 439:-0.0803571 440:0.0208333 441:0.00460829 442:0.223881 443:0.156951 444:0.402062 445:0.698492 446:0.771144 447:0.827751 448:0.666667 449:0.68932 450:0.53211 451:0.751111 452:0.45283 453:-0.0135747 454:0.268722 455:0.484163 456:0.61991 457:0.737089 458:0.794118 459:0.669903 460:0.624454 461:0.714286 462:0.275229 463:0.0593607 464:-0.0842105 465:0.03125 466:-0.373134 467:-0.313433 468:-0.147982 469:-0.0485437 470:-0.173469 471:-0.156951 472:-0.238095 473:-0.0740741 474:0.276382 475:0.412935 476:0.637255 477:0.78744 478:0.545455 479:0.504673 480:0.440367 481:0.69863 482:0.247619 483:0.242009 484:0.5311 485:0.702326 486:0.765766 487:0.61165 488:0.543689 489:0.722488 490:0.244635 491:-0.399015 492:0.490741 493:-0.562791 494:-0.677419 495:-0.137441 496:-0.463918 497:-0.29064 498:0.209756 499:0.17757 500:-0.292453 501:-0.31068 502:-0.12037 503:-0.107143 504:0.0313901 505:0.412844 506:0.637255 507:0.721393 508:0.444444 509:0.439252 510:0.393365 511:0.400922 512:0.320755 513:0.558685 514:0.621145 515:0.796117 516:0.752294 517:0.25 518:0.536946 519:0.148515 520:-0.277533 521:0.791045 522:0.651376 523:-0.34375 524:-0.473684 525:-0.868687 526:-0.0549451 527:-0.205357 528:0.531915 529:0.429952 530:0.145729 531:-0.1 532:-0.246231 533:-0.273684 534:0.137441 535:0.640777 536:0.676768 537:0.463636 538:0.465347 539:0.502439 540:0.470588 541:0.535545 542:0.62037 543:0.650224 544:0.668161 545:0.841121 546:0.464789 547:0.21659 548:-0.188679 549:-0.555556 550:0.379913 551:0.729469 552:0.586207 553:-0.278351 554:-0.0729167 555:-0.0954774 556:0.0491803 557:0.120879 558:0.620513 559:0.399015 560:0.121212 561:0.14433 562:0.0899471 563:-0.0108696 564:0.14554 565:0.657407 566:0.457143 567:0.514563 568:0.495238 569:0.366834 570:0.437186 571:0.745098 572:0.65368 573:0.770642 574:0.769585 575:0.843902 576:0.20362 577:-0.102804 578:-0.190244 579:-0.161905 580:0.313725 581:0.819149 582:0.797101 583:0.533981 584:0.154229 585:0.0673575 586:0.313131 587:0.278846 588:0.474747 589:0.283422 590:0.343915 591:0.100478 592:0.39604 593:0.483871 594:0.511521 595:0.557604 596:0.495238 597:0.588235 598:0.405405 599:0.27619 600:0.369458 601:0.751152 602:0.876777 603:0.861751 604:0.831111 605:0.708543 606:0.188406 607:0.352657 608:0.38835 609:0.38756 610:0.465347 611:0.238095 612:0.554455 613:0.214612 614:0.396226 615:0.229167 616:0.572139 617:0.306122 618:0.551913 619:0.354839 620:0.414365 621:0.350254 622:0.415094 623:0.428571 624:0.668293 625:0.563107 626:0.514286 627:0.555556 628:0.419643 629:0.251185 630:0.32093 631:0.851485 632:0.873786 633:0.848214 634:0.813953 635:0.756098 636:0.656863 637:0.714286 638:0.653333 639:0.836538 640:0.725118 641:0.708738 642:0.772021 643:0.533333 644:0.588517 645:0.552239 646:0.65 647:0.60804 648:0.530726 649:0.518717 650:0.473118 651:0.591398 652:0.639344 653:0.661538 654:0.697561 655:0.65 656:0.507389 657:0.516588 658:0.474178 659:0.330233 660:0.252252 661:0.715596 662:0.858491 663:0.852535 664:0.794118 665:0.826531 666:0.857868 667:0.768519 668:0.943662 669:0.930693 670:0.852217 671:0.838095 672:0.787234 673:0.651741 674:0.748744 675:0.684211 676:0.630769 677:0.574468 678:0.62 679:0.57513 680:0.763441 681:0.712766 682:0.802083 683:0.696335 684:0.747573 685:0.640777 686:0.61194 687:0.615764 688:0.53 689:0.407407 690:0.317073 691:0.857868 692:0.856459 693:0.826087 694:0.835749 695:0.833333 696:0.908163 697:0.938776 698:0.915493 699:0.95122 700:0.813725 701:0.714286 702:0.764103 703:0.755869 704:0.751196 705:0.794872 706:0.728643 707:0.680412 708:0.8125 709:0.744898 710:0.736842 711:0.809524 712:0.811518 713:0.705882 714:0.663366 715:0.61658 716:0.626263 717:0.59434 718:0.567839 719:0.424658 720:0.356098 721:0.795122 722:0.791469 723:0.830986 724:0.848485 725:0.834146 726:0.770335 727:0.899497 728:0.914286 729:0.890547 730:0.818182 731:0.778802 732:0.796954 733:0.751244 734:0.860697 735:0.85641 736:0.762376 737:0.728643 738:0.829787 739:0.753846 740:0.794872 741:0.873016 742:0.769634 743:0.719807 744:0.729167 745:0.573604 746:0.718447 747:0.687805 748:0.554502 749:0.364486 750:0.346341 751:0.878173 752:0.87 753:0.768519 754:0.823529 755:0.892157 756:0.889447 757:0.852941 758:0.838095 759:0.899497 760:0.854369 761:0.837321 762:0.726415 763:0.83 764:0.829146 765:0.867347 766:0.778894 767:0.756345 768:0.746193 769:0.8 770:0.746193 771:0.873016 772:0.801047 773:0.802956 774:0.614213 775:0.616162 776:0.648148 777:0.855072 778:0.502439 779:0.392523 780:0.411215 781:0.887755 782:0.841584 783:0.870647 784:0.772512 785:0.88 786:0.823256 787:0.852217 788:0.832558 789:0.862745 790:0.870647 791:0.861111 792:0.745455 793:0.783251 794:0.822917 795:0.865979 796:0.727273 797:0.728643 798:0.762887 799:0.782383 800:0.787879 801:0.84375 802:0.845361 803:0.804124 804:0.563452 805:0.615764 806:0.680365 807:0.940594 808:0.679612 809:0.421801 810:0.490741 811:0.795349 812:0.919192 813:0.820755 814:0.774648 815:0.866029 816:0.780822 817:0.820755 818:0.856459 819:0.813953 820:0.81 821:0.855769 822:0.734513 823:0.765854 824:0.846939 825:0.816425 826:0.754902 827:0.796954 828:0.773196 829:0.865285 830:0.852632 831:0.85567 832:0.908629 833:0.680412 834:0.594059 835:0.547739 836:0.716981 837:0.884058 838:0.582938 839:0.244444 840:0.38326 841:0.800948 842:0.891089 843:0.755656 844:0.825243 845:0.855769 846:0.893204 847:0.780822 848:0.848341 849:0.858491 850:0.85 851:0.753695 852:0.754545 853:0.671498 854:0.823834 855:0.775701 856:0.823834 857:0.828283 858:0.830846 859:0.851485 860:0.917098 861:0.905759 862:0.839196 863:0.563452 864:0.712821 865:0.495146 866:0.576923 867:0.772512 868:0.528302 869:0.373272 870:0.342342 871:0.793103 872:0.830986 873:0.885714 874:0.826923 875:0.825243 876:0.719298 877:0.873786 878:0.830189 879:0.859813 880:0.846154 881:0.79 882:0.788018 883:0.718182 884:0.846154 885:0.821596 886:0.800995 887:0.84 888:0.826531 889:0.920792 890:0.929293 891:0.89372 892:0.673267 893:0.598039 894:0.64467 895:0.572816 896:0.557692 897:0.633663 898:0.473171 899:0.354545 900:0.284483 
0.01967046321882486 1:-0.453659 2:-0.190698 3:0.0418605 4:0.438095 5:0.53 6:0.59447 7:0.648241 8:0.684729 9:0.701493 10:0.74 11:0.726829 12:0.761194 13:0.741294 14:0.733333 15:0.743842 16:0.825243 17:0.820896 18:0.809045 19:0.833333 20:0.848485 21:0.834146 22:0.860697 23:0.852941 24:0.841584 25:0.880597 26:0.82266 27:0.79 28:0.735294 29:0.740385 30:0.707965 31:-0.196262 32:-0.240385 33:0.211009 34:0.459716 35:0.504854 36:0.575472 37:0.526066 38:0.683168 39:0.678392 40:0.707071 41:0.718593 42:0.718593 43:0.77665 44:0.768844 45:0.708738 46:0.783251 47:0.798995 48:0.815534 49:0.811881 50:0.856459 51:0.849246 52:0.873171 53:0.854369 54:0.853659 55:0.85 56:0.818182 57:0.786408 58:0.793103 59:0.799043 60:0.785366 61:-0.105991 62:-0.165877 63:0.361111 64:0.502488 65:0.509434 66:0.568627 67:0.575758 68:0.539171 69:0.648241 70:0.693878 71:0.683168 72:0.751244 73:0.73399 74:0.715686 75:0.745098 76:0.765854 77:0.752475 78:0.79798 79:0.83 80:0.821782 81:0.852217 82:0.857868 83:0.840796 84:0.843902 85:0.86 86:0.80198 87:0.77561 88:0.669811 89:0.77 90:0.796117 91:-0.117371 92:-0.138756 93:0.457014 94:0.49763 95:0.422414 96:0.519231 97:0.557789 98:0.550239 99:0.633663 100:0.693069 101:0.671642 102:0.745098 103:0.652174 104:0.737864 105:0.718593 106:0.761194 107:0.768844 108:0.76 109:0.805825 110:0.837563 111:0.771429 112:0.819095 113:0.807692 114:0.82 115:0.722222 116:0.792079 117:0.79 118:0.79 119:0.762376 120:0.812808 121:-0.17757 122:0.0837438 123:0.5 124:0.504762 125:0.514851 126:0.504854 127:0.548077 128:0.622449 129:0.613861 130:0.653465 131:0.51 132:0.557789 133:0.644231 134:0.708738 135:0.666667 136:0.68 137:0.736041 138:0.746341 139:0.773399 140:0.764706 141:0.777778 142:0.8 143:0.807692 144:0.803922 145:0.834146 146:0.809045 147:0.828283 148:0.746479 149:0.792079 150:0.800995 151:-0.135135 152:0.267327 153:0.480769 154:0.45098 155:0.538462 156:0.574257 157:0.54067 158:0.49505 159:0.243781 160:0.350254 161:0.447236 162:0.193878 163:0.557604 164:0.703349 165:0.678392 166:0.505155 167:0.540816 168:0.411168 169:0.666667 170:0.495146 171:0.464115 172:0.564356 173:0.410628 174:0.342857 175:0.346154 176:0.297561 177:0.27451 178:0.245283 179:0.165049 180:0.13 181:-0.103774 182:0.5 183:0.444976 184:0.307692 185:0.39604 186:0.241379 187:0.025641 188:0.029703 189:0.0192308 190:0.078534 191:0.1875 192:-0.0431034 193:-0.0373832 194:0.0854271 195:-0.0900901 196:-0.117949 197:-0.125 198:-0.164948 199:-0.264249 200:-0.293532 201:-0.134328 202:-0.368932 203:-0.152709 204:-0.158416 205:-0.257426 206:-0.119617 207:0.0805687 208:0.0976744 209:0.170306 210:0.27 211:0.062201 212:0.422222 213:0.304762 214:-0.0616114 215:0.0246305 216:0.276382 217:0.165829 218:0.0824742 219:0.192308 220:0.147368 221:0.166667 222:0.0552764 223:0.0157068 224:-0.291667 225:-0.468468 226:-0.497537 227:-0.412371 228:-0.387755 229:-0.456311 230:-0.31068 231:0.461883 232:0.252336 233:0.0588235 234:-0.115385 235:-0.0821256 236:-0.512438 237:0.679612 238:-0.134884 239:-0.0740741 240:0.175926 241:0.42 242:0.326923 243:0.0526316 244:0.282051 245:0.671362 246:0.535545 247:0.145631 248:0.015873 249:0.108911 250:0.274611 251:0.267016 252:0.0784314 253:-0.0612245 254:-0.323944 255:-0.326316 256:-0.31068 257:-0.41 258:-0.457286 259:-0.669903 260:0.0485437 261:1 262:0.943925 263:0.925234 264:0.812207 265:0.38835 266:-0.0243902 267:0.0746269 268:0.921182 269:0.0545455 270:0.620853 271:0.941463 272:0.169643 273:0.23445 274:0.760766 275:0.67619 276:0.119266 277:0.130841 278:0.333333 279:0.307692 280:0.324324 281:0.297561 282:-0.0526316 283:-0.0673077 284:-0.111111 285:-0.165049 286:-0.148325 287:-0.148325 288:-0.185185 289:-0.346341 290:-0.35514 291:0.990783 292:0.917051 293:0.880734 294:1 295:0.481132 296:0.342857 297:-0.221154 298:1 299:0.237624 300:0.754902 301:1 302:0.23445 303:0.569507 304:0.820755 305:0.62963 306:-0.0230415 307:0.0678733 308:0.277778 309:0.458128 310:0.349057 311:0.111111 312:-0.18593 313:-0.162562 314:-0.141463 315:-0.24878 316:-0.252427 317:-0.190698 318:-0.281553 319:-0.387387 320:-0.578947 321:0.27619 322:0.889908 323:0.895735 324:1 325:0.251142 326:0.382488 327:0.241706 328:1 329:0.0239234 330:0.0762332 331:1 332:0.227723 333:0.973214 334:0.908257 335:0.878505 336:0.901961 337:0.242009 338:0.343137 339:0.349515 340:0.134884 341:-0.138889 342:-0.388128 343:-0.1 344:-0.176471 345:-0.162162 346:-0.174888 347:-0.138889 348:-0.323671 349:-0.315068 350:-0.43379 351:-0.540541 352:-0.0545455 353:0.364055 354:0.464789 355:-0.0883721 356:0.102804 357:0.420561 358:0.880184 359:0.172093 360:0.428571 361:0.300493 362:0.658537 363:1 364:1 365:0.814815 366:1 367:0.688073 368:0.218182 369:0.137255 370:-0.0531401 371:-0.208889 372:-0.303922 373:0.0456853 374:0.392157 375:0.340314 376:0.410628 377:0.336406 378:0.0837438 379:-0.18 380:0.0422535 381:-0.154545 382:-0.465438 383:-0.255814 384:-0.0234742 385:-0.0377358 386:-0.0648148 387:0.308411 388:0.255814 389:0.404444 390:0.757848 391:0.222749 392:0.582524 393:0.955556 394:1 395:0.921951 396:1 397:0.525581 398:0.0859729 399:-0.149758 400:-0.116279 401:-0.15493 402:0.253219 403:1 404:0.852941 405:0.299492 406:0.0412371 407:0.240741 408:0.511111 409:0.563107 410:0.111111 411:-0.0970874 412:-0.0813397 413:-0.423423 414:-0.180952 415:-0.0961538 416:-0.0697674 417:0.339367 418:0.103774 419:0.733945 420:0.809091 421:0.214612 422:0.502347 423:0.54955 424:0.791304 425:0.887324 426:0.767857 427:0.336364 428:0.00970874 429:-0.213592 430:-0.302326 431:0.0422535 432:0.741627 433:0.875 434:0.195767 435:-0.643243 436:-0.350515 437:-0.246073 438:-0.306931 439:0.571429 440:0.541667 441:-0.0691244 442:-0.0845771 443:-0.255605 444:-0.319588 445:0.0954774 446:-0.00497512 447:0.37799 448:0.358974 449:0.815534 450:0.798165 451:0.386667 452:0.443396 453:0.429864 454:0.330396 455:0.420814 456:0.384615 457:0.201878 458:-0.137255 459:-0.174757 460:-0.222707 461:0.227513 462:0.779817 463:0.13242 464:0.315789 465:-0.177083 466:-0.641791 467:0.19403 468:-0.811659 469:0.417476 470:0.55102 471:0.139013 472:-0.161905 473:-0.203704 474:-0.105528 475:0.174129 476:0.00980392 477:-0.130435 478:0.436364 479:0.738318 480:0.752294 481:0.287671 482:0.361905 483:0.187215 484:0.0813397 485:0.0325581 486:0.0990991 487:-0.0679612 488:-0.184466 489:-0.196172 490:-0.0987124 491:0.0344828 492:0.518519 493:0.116279 494:-0.465438 495:-0.146919 496:-0.773196 497:-0.37931 498:-0.668293 499:0.158879 500:0.349057 501:0.0485437 502:0.231481 503:-0.232143 504:0.156951 505:0.266055 506:-0.0294118 507:-0.164179 508:0.564815 509:0.654206 510:0.706161 511:0.078341 512:0.160377 513:-0.00469484 514:-0.171806 515:-0.262136 516:-0.201835 517:-0.326923 518:-0.280788 519:-0.287129 520:-0.145374 521:0.104478 522:0.247706 523:0.427083 524:-0.157895 525:-0.262626 526:-0.263736 527:-0.241071 528:-0.148936 529:0.140097 530:0.366834 531:0.1 532:0.115578 533:-0.0526316 534:0.127962 535:0.145631 536:-0.282828 537:0.272727 538:0.643564 539:0.726829 540:0.696078 541:0.374408 542:0.611111 543:0.363229 544:0.246637 545:0.196262 546:0.117371 547:0.00460829 548:-0.0283019 549:-0.132275 550:-0.100437 551:0.15942 552:0.418719 553:0.56701 554:0.354167 555:0.125628 556:0.234973 557:0.197802 558:0.117949 559:0.0344828 560:0.121212 561:0.175258 562:0.174603 563:-0.0217391 564:0.00469484 565:-0.0648148 566:-0.171429 567:0.747573 568:0.628571 569:0.658291 570:0.728643 571:0.431373 572:0.52381 573:0.59633 574:0.576037 575:0.609756 576:0.339367 577:0.448598 578:0.463415 579:0.171429 580:0.127451 581:0.297872 582:0.333333 583:0.446602 584:0.402985 585:0.233161 586:0.0707071 587:0.0673077 588:0.010101 589:0.0588235 590:0.164021 591:0.0430622 592:0.00990099 593:0.0967742 594:0.0875576 595:-0.281106 596:0.4 597:0.794118 598:0.540541 599:0.638095 600:0.773399 601:0.317972 602:0.668246 603:0.686636 604:0.608889 605:0.668342 606:0.516908 607:0.536232 608:0.563107 609:0.444976 610:0.148515 611:0.396825 612:0.356436 613:0.278539 614:0.349057 615:0.239583 616:0.19403 617:0.193878 618:0.15847 619:0.236559 620:0.226519 621:0.137056 622:-1.11022e-016 623:0.248677 624:-0.00487805 625:0.0291262 626:0.780952 627:0.700483 628:0.508929 629:0.630332 630:0.702326 631:0.148515 632:0.650485 633:0.669643 634:0.665116 635:0.697561 636:0.607843 637:0.546798 638:0.431111 639:0.480769 640:0.0900474 641:0.339806 642:0.336788 643:0.304762 644:0.368421 645:0.323383 646:0.3 647:0.256281 648:0.296089 649:0.326203 650:0.408602 651:0.473118 652:0.333333 653:0.0974359 654:-0.00487805 655:0.81 656:0.862069 657:0.582938 658:0.671362 659:0.748837 660:0.756757 661:-0.266055 662:0.716981 663:0.769585 664:0.696078 665:0.744898 666:0.746193 667:0.583333 668:0.671362 669:0.534653 670:0.330049 671:0.485714 672:0.574468 673:0.432836 674:0.477387 675:0.492823 676:0.476923 677:0.446809 678:0.57 679:0.492228 680:0.72043 681:0.765957 682:0.333333 683:-0.246073 684:0.631068 685:0.951456 686:0.771144 687:0.714286 688:0.82 689:0.796296 690:0.814634 691:-0.28934 692:0.588517 693:0.758454 694:0.777778 695:0.676471 696:0.765306 697:0.755102 698:0.615023 699:0.639024 700:0.696078 701:0.714286 702:0.774359 703:0.755869 704:0.751196 705:0.753846 706:0.758794 707:0.71134 708:0.802083 709:0.77551 710:0.831579 711:0.57672 712:-0.235602 713:0.196078 714:0.90099 715:0.792746 716:0.59596 717:0.679245 718:0.798995 719:0.817352 720:0.804878 721:0.326829 722:-0.07109 723:0.821596 724:0.787879 725:0.678049 726:0.69378 727:0.648241 728:0.542857 729:0.810945 730:0.828283 731:0.797235 732:0.837563 733:0.840796 734:0.860697 735:0.846154 736:0.792079 737:0.748744 738:0.808511 739:0.805128 740:0.476923 741:-0.153439 742:0.0366492 743:0.52657 744:0.822917 745:0.664975 746:0.543689 747:0.687805 748:0.763033 749:0.831776 750:0.765854 751:0.786802 752:-0.16 753:0.842593 754:0.754902 755:0.696078 756:0.839196 757:0.5 758:0.552381 759:0.919598 760:0.873786 761:0.837321 762:0.792453 763:0.87 764:0.869347 765:0.857143 766:0.849246 767:0.807107 768:0.796954 769:0.305263 770:-0.167513 771:-0.037037 772:0.455497 773:0.527094 774:0.736041 775:0.707071 776:0.537037 777:0.652174 778:0.746341 779:0.757009 780:0.841121 781:0.530612 782:0.465347 783:0.621891 784:0.800948 785:0.71 786:0.832558 787:0.359606 788:0.572093 789:0.95098 790:0.890547 791:0.851852 792:0.754545 793:0.802956 794:0.885417 795:0.917526 796:0.848485 797:0.58794 798:0.123711 799:-0.181347 800:-0.040404 801:0.395833 802:0.556701 803:0.505155 804:0.756345 805:0.674877 806:0.607306 807:0.623762 808:0.747573 809:0.800948 810:0.814815 811:0.432558 812:0.616162 813:0.528302 814:0.342723 815:0.138756 816:0.634703 817:0.641509 818:0.626794 819:0.888372 820:0.94 821:0.894231 822:0.787611 823:0.843902 824:0.846939 825:0.603865 826:0.147059 827:-0.106599 828:-0.0618557 829:0.202073 830:0.357895 831:0.505155 832:0.390863 833:0.71134 834:0.782178 835:0.708543 836:0.613208 837:0.52657 838:0.582938 839:0.751111 840:0.762115 841:0.364929 842:0.574257 843:0.538462 844:0.61165 845:0.490385 846:0.31068 847:0.123288 848:0.35545 849:0.433962 850:0.5 851:0.389163 852:0.272727 853:0.0628019 854:-0.00518135 855:2.22045e-016 856:0.0673575 857:0.252525 858:0.402985 859:0.465347 860:0.481865 861:0.382199 862:0.417085 863:0.715736 864:0.784615 865:0.660194 866:0.528846 867:0.440758 868:0.45283 869:0.760369 870:0.864865 871:0.330049 872:0.464789 873:0.580952 874:0.576923 875:0.621359 876:0.578947 877:0.669903 878:0.5 879:0.35514 880:0.230769 881:0.19 882:0.18894 883:0.3 884:0.333333 885:0.511737 886:0.472637 887:0.51 888:0.397959 889:0.415842 890:0.414141 891:0.246377 892:0.356436 893:0.578431 894:0.624365 895:0.563107 896:0.413462 897:0.376238 898:0.336585 899:0.472727 900:0.560345 
